digraph Tree {
node [shape=box, style="filled", color="black", fontname="helvetica"] ;
edge [fontname="helvetica"] ;
0 [label="SST - climatology <= 27.946\nsquared_error = 424.074\nsamples = 513\nvalue = 50.829", fillcolor="#f6d4bb"] ;
1 [label="SSS - climatology <= 34.998\nsquared_error = 381.442\nsamples = 312\nvalue = 60.99", fillcolor="#f3c6a5"] ;
0 -> 1 [labeldistance=2.5, labelangle=45, headlabel="True"] ;
2 [label="SST - climatology <= 27.538\nsquared_error = 230.385\nsamples = 179\nvalue = 71.66", fillcolor="#f0b88f"] ;
1 -> 2 ;
3 [label="SSH - anomaly <= -0.012\nsquared_error = 205.549\nsamples = 129\nvalue = 76.57", fillcolor="#efb185"] ;
2 -> 3 ;
4 [label="SST - anomaly <= -0.271\nsquared_error = 176.482\nsamples = 54\nvalue = 70.727", fillcolor="#f1b991"] ;
3 -> 4 ;
5 [label="SSH - anomaly <= -0.07\nsquared_error = 168.818\nsamples = 28\nvalue = 75.997", fillcolor="#efb286"] ;
4 -> 5 ;
6 [label="month of year <= 403.0\nsquared_error = 100.658\nsamples = 7\nvalue = 64.905", fillcolor="#f2c19d"] ;
5 -> 6 ;
7 [label="SSH - anomaly <= -0.075\nsquared_error = 67.047\nsamples = 6\nvalue = 67.588", fillcolor="#f1bd97"] ;
6 -> 7 ;
8 [label="SSH - anomaly <= -0.088\nsquared_error = 59.773\nsamples = 4\nvalue = 71.213", fillcolor="#f0b890"] ;
7 -> 8 ;
9 [label="SST - anomaly <= -0.67\nsquared_error = 16.034\nsamples = 3\nvalue = 67.223", fillcolor="#f2be98"] ;
8 -> 9 ;
10 [label="SSH - climatology <= 0.784\nsquared_error = 0.951\nsamples = 2\nvalue = 69.998", fillcolor="#f1ba92"] ;
9 -> 10 ;
11 [label="squared_error = 0.0\nsamples = 1\nvalue = 70.974", fillcolor="#f0b990"] ;
10 -> 11 ;
12 [label="squared_error = 0.0\nsamples = 1\nvalue = 69.023", fillcolor="#f1bb94"] ;
10 -> 12 ;
13 [label="squared_error = 0.0\nsamples = 1\nvalue = 61.674", fillcolor="#f3c5a4"] ;
9 -> 13 ;
14 [label="squared_error = 0.0\nsamples = 1\nvalue = 83.181", fillcolor="#eda877"] ;
8 -> 14 ;
15 [label="SSS - climatology <= 34.961\nsquared_error = 2.779\nsamples = 2\nvalue = 60.34", fillcolor="#f3c7a7"] ;
7 -> 15 ;
16 [label="squared_error = 0.0\nsamples = 1\nvalue = 62.007", fillcolor="#f3c5a3"] ;
15 -> 16 ;
17 [label="squared_error = 0.0\nsamples = 1\nvalue = 58.673", fillcolor="#f4c9aa"] ;
15 -> 17 ;
18 [label="squared_error = 0.0\nsamples = 1\nvalue = 48.808", fillcolor="#f7d6bf"] ;
6 -> 18 ;
19 [label="SST - anomaly <= -0.334\nsquared_error = 136.859\nsamples = 21\nvalue = 79.695", fillcolor="#eead7e"] ;
5 -> 19 ;
20 [label="month of year <= 175.0\nsquared_error = 122.578\nsamples = 19\nvalue = 78.089", fillcolor="#efaf81"] ;
19 -> 20 ;
21 [label="SST - anomaly <= -0.472\nsquared_error = 53.18\nsamples = 5\nvalue = 88.424", fillcolor="#eca16c"] ;
20 -> 21 ;
22 [label="month of year <= 168.5\nsquared_error = 26.904\nsamples = 4\nvalue = 85.61", fillcolor="#eca572"] ;
21 -> 22 ;
23 [label="SSS - anomaly <= -0.076\nsquared_error = 3.96\nsamples = 3\nvalue = 82.786", fillcolor="#eda978"] ;
22 -> 23 ;
24 [label="squared_error = 0.0\nsamples = 1\nvalue = 85.509", fillcolor="#eca572"] ;
23 -> 24 ;
25 [label="month of year <= 85.0\nsquared_error = 0.379\nsamples = 2\nvalue = 81.424", fillcolor="#eeab7a"] ;
23 -> 25 ;
26 [label="squared_error = 0.0\nsamples = 1\nvalue = 82.04", fillcolor="#edaa79"] ;
25 -> 26 ;
27 [label="squared_error = 0.0\nsamples = 1\nvalue = 80.809", fillcolor="#eeab7c"] ;
25 -> 27 ;
28 [label="squared_error = 0.0\nsamples = 1\nvalue = 94.084", fillcolor="#ea9a60"] ;
22 -> 28 ;
29 [label="squared_error = 0.0\nsamples = 1\nvalue = 99.676", fillcolor="#e99254"] ;
21 -> 29 ;
30 [label="SSS - anomaly <= 0.18\nsquared_error = 95.599\nsamples = 14\nvalue = 74.399", fillcolor="#f0b489"] ;
20 -> 30 ;
31 [label="SST - anomaly <= -0.39\nsquared_error = 56.622\nsamples = 12\nvalue = 71.969", fillcolor="#f0b78e"] ;
30 -> 31 ;
32 [label="SSH - anomaly <= -0.054\nsquared_error = 40.513\nsamples = 11\nvalue = 73.3", fillcolor="#f0b58b"] ;
31 -> 32 ;
33 [label="SST - anomaly <= -0.725\nsquared_error = 10.364\nsamples = 3\nvalue = 79.802", fillcolor="#eead7e"] ;
32 -> 33 ;
34 [label="SSS - climatology <= 34.961\nsquared_error = 0.641\nsamples = 2\nvalue = 82.031", fillcolor="#edaa79"] ;
33 -> 34 ;
35 [label="squared_error = 0.0\nsamples = 1\nvalue = 82.832", fillcolor="#eda977"] ;
34 -> 35 ;
36 [label="squared_error = 0.0\nsamples = 1\nvalue = 81.23", fillcolor="#eeab7b"] ;
34 -> 36 ;
37 [label="squared_error = 0.0\nsamples = 1\nvalue = 75.344", fillcolor="#efb387"] ;
33 -> 37 ;
38 [label="month of year <= 498.5\nsquared_error = 30.019\nsamples = 8\nvalue = 70.862", fillcolor="#f0b991"] ;
32 -> 38 ;
39 [label="SSS - anomaly <= 0.082\nsquared_error = 20.286\nsamples = 7\nvalue = 72.186", fillcolor="#f0b78e"] ;
38 -> 39 ;
40 [label="month of year <= 276.5\nsquared_error = 16.94\nsamples = 5\nvalue = 70.494", fillcolor="#f1b991"] ;
39 -> 40 ;
41 [label="squared_error = 0.0\nsamples = 1\nvalue = 62.701", fillcolor="#f3c4a2"] ;
40 -> 41 ;
42 [label="SST - climatology <= 26.292\nsquared_error = 2.2\nsamples = 4\nvalue = 72.442", fillcolor="#f0b78d"] ;
40 -> 42 ;
43 [label="squared_error = 0.0\nsamples = 1\nvalue = 70.146", fillcolor="#f1ba92"] ;
42 -> 43 ;
44 [label="squared_error = 0.591\nsamples = 3\nvalue = 73.207", fillcolor="#f0b68c"] ;
42 -> 44 ;
45 [label="SST - anomaly <= -0.432\nsquared_error = 3.602\nsamples = 2\nvalue = 76.416", fillcolor="#efb185"] ;
39 -> 45 ;
46 [label="squared_error = 0.0\nsamples = 1\nvalue = 74.518", fillcolor="#efb489"] ;
45 -> 46 ;
47 [label="squared_error = 0.0\nsamples = 1\nvalue = 78.313", fillcolor="#eeaf81"] ;
45 -> 47 ;
48 [label="squared_error = 0.0\nsamples = 1\nvalue = 61.594", fillcolor="#f3c5a4"] ;
38 -> 48 ;
49 [label="squared_error = 0.0\nsamples = 1\nvalue = 57.329", fillcolor="#f4cbad"] ;
31 -> 49 ;
50 [label="SSS - anomaly <= 0.283\nsquared_error = 81.549\nsamples = 2\nvalue = 88.976", fillcolor="#eca16b"] ;
30 -> 50 ;
51 [label="squared_error = 0.0\nsamples = 1\nvalue = 98.006", fillcolor="#e99458"] ;
50 -> 51 ;
52 [label="squared_error = 0.0\nsamples = 1\nvalue = 79.945", fillcolor="#eead7d"] ;
50 -> 52 ;
53 [label="SSS - anomaly <= 0.188\nsquared_error = 15.514\nsamples = 2\nvalue = 94.944", fillcolor="#ea995e"] ;
19 -> 53 ;
54 [label="squared_error = 0.0\nsamples = 1\nvalue = 98.883", fillcolor="#e99356"] ;
53 -> 54 ;
55 [label="squared_error = 0.0\nsamples = 1\nvalue = 91.005", fillcolor="#eb9e66"] ;
53 -> 55 ;
56 [label="month of year <= 348.5\nsquared_error = 122.611\nsamples = 26\nvalue = 65.051", fillcolor="#f2c09d"] ;
4 -> 56 ;
57 [label="SSH - anomaly <= -0.029\nsquared_error = 36.308\nsamples = 8\nvalue = 57.29", fillcolor="#f4cbad"] ;
56 -> 57 ;
58 [label="SST - anomaly <= -0.197\nsquared_error = 21.32\nsamples = 6\nvalue = 59.638", fillcolor="#f4c8a8"] ;
57 -> 58 ;
59 [label="SSH - anomaly <= -0.058\nsquared_error = 9.979\nsamples = 2\nvalue = 54.222", fillcolor="#f5cfb4"] ;
58 -> 59 ;
60 [label="squared_error = 0.0\nsamples = 1\nvalue = 57.381", fillcolor="#f4cbad"] ;
59 -> 60 ;
61 [label="squared_error = 0.0\nsamples = 1\nvalue = 51.063", fillcolor="#f6d3ba"] ;
59 -> 61 ;
62 [label="SSH - anomaly <= -0.039\nsquared_error = 4.985\nsamples = 4\nvalue = 62.347", fillcolor="#f3c4a2"] ;
58 -> 62 ;
63 [label="SST - anomaly <= -0.065\nsquared_error = 0.146\nsamples = 3\nvalue = 61.072", fillcolor="#f3c6a5"] ;
62 -> 63 ;
64 [label="SST - anomaly <= -0.117\nsquared_error = 0.019\nsamples = 2\nvalue = 61.33", fillcolor="#f3c5a5"] ;
63 -> 64 ;
65 [label="squared_error = 0.0\nsamples = 1\nvalue = 61.194", fillcolor="#f3c6a5"] ;
64 -> 65 ;
66 [label="squared_error = 0.0\nsamples = 1\nvalue = 61.466", fillcolor="#f3c5a4"] ;
64 -> 66 ;
67 [label="squared_error = 0.0\nsamples = 1\nvalue = 60.555", fillcolor="#f3c7a6"] ;
63 -> 67 ;
68 [label="squared_error = 0.0\nsamples = 1\nvalue = 66.171", fillcolor="#f2bf9a"] ;
62 -> 68 ;
69 [label="SST - anomaly <= 0.098\nsquared_error = 15.104\nsamples = 2\nvalue = 50.246", fillcolor="#f6d4bc"] ;
57 -> 69 ;
70 [label="squared_error = 0.0\nsamples = 1\nvalue = 46.359", fillcolor="#f7d9c4"] ;
69 -> 70 ;
71 [label="squared_error = 0.0\nsamples = 1\nvalue = 54.132", fillcolor="#f5cfb4"] ;
69 -> 71 ;
72 [label="SSH - anomaly <= -0.079\nsquared_error = 122.297\nsamples = 18\nvalue = 68.501", fillcolor="#f1bc96"] ;
56 -> 72 ;
73 [label="squared_error = 0.0\nsamples = 1\nvalue = 48.438", fillcolor="#f7d7c0"] ;
72 -> 73 ;
74 [label="SST - anomaly <= 0.347\nsquared_error = 104.42\nsamples = 17\nvalue = 69.681", fillcolor="#f1ba93"] ;
72 -> 74 ;
75 [label="SST - anomaly <= 0.129\nsquared_error = 83.558\nsamples = 12\nvalue = 72.951", fillcolor="#f0b68c"] ;
74 -> 75 ;
76 [label="SST - anomaly <= -0.021\nsquared_error = 65.701\nsamples = 8\nvalue = 68.97", fillcolor="#f1bb95"] ;
75 -> 76 ;
77 [label="SSS - anomaly <= -0.027\nsquared_error = 62.228\nsamples = 5\nvalue = 72.82", fillcolor="#f0b68c"] ;
76 -> 77 ;
78 [label="SSH - anomaly <= -0.025\nsquared_error = 0.503\nsamples = 2\nvalue = 64.395", fillcolor="#f2c19e"] ;
77 -> 78 ;
79 [label="squared_error = 0.0\nsamples = 1\nvalue = 63.686", fillcolor="#f2c2a0"] ;
78 -> 79 ;
80 [label="squared_error = 0.0\nsamples = 1\nvalue = 65.104", fillcolor="#f2c09d"] ;
78 -> 80 ;
81 [label="SSS - anomaly <= 0.021\nsquared_error = 24.52\nsamples = 3\nvalue = 78.436", fillcolor="#eeaf81"] ;
77 -> 81 ;
82 [label="squared_error = 0.0\nsamples = 1\nvalue = 85.083", fillcolor="#eda673"] ;
81 -> 82 ;
83 [label="SSS - anomaly <= 0.177\nsquared_error = 3.645\nsamples = 2\nvalue = 75.112", fillcolor="#efb388"] ;
81 -> 83 ;
84 [label="squared_error = 0.0\nsamples = 1\nvalue = 73.203", fillcolor="#f0b68c"] ;
83 -> 84 ;
85 [label="squared_error = 0.0\nsamples = 1\nvalue = 77.022", fillcolor="#efb084"] ;
83 -> 85 ;
86 [label="SST - anomaly <= 0.116\nsquared_error = 5.644\nsamples = 3\nvalue = 62.555", fillcolor="#f3c4a2"] ;
76 -> 86 ;
87 [label="SST - climatology <= 26.81\nsquared_error = 0.972\nsamples = 2\nvalue = 64.136", fillcolor="#f2c29f"] ;
86 -> 87 ;
88 [label="squared_error = 0.0\nsamples = 1\nvalue = 63.15", fillcolor="#f3c3a1"] ;
87 -> 88 ;
89 [label="squared_error = 0.0\nsamples = 1\nvalue = 65.122", fillcolor="#f2c09d"] ;
87 -> 89 ;
90 [label="squared_error = 0.0\nsamples = 1\nvalue = 59.394", fillcolor="#f4c8a9"] ;
86 -> 90 ;
91 [label="SSH - anomaly <= -0.061\nsquared_error = 24.229\nsamples = 4\nvalue = 80.911", fillcolor="#eeab7b"] ;
75 -> 91 ;
92 [label="squared_error = 0.0\nsamples = 1\nvalue = 73.846", fillcolor="#f0b58a"] ;
91 -> 92 ;
93 [label="month of year <= 517.5\nsquared_error = 10.121\nsamples = 3\nvalue = 83.266", fillcolor="#eda877"] ;
91 -> 93 ;
94 [label="SSS - anomaly <= -0.154\nsquared_error = 0.225\nsamples = 2\nvalue = 81.033", fillcolor="#eeab7b"] ;
93 -> 94 ;
95 [label="squared_error = 0.0\nsamples = 1\nvalue = 81.507", fillcolor="#eeaa7a"] ;
94 -> 95 ;
96 [label="squared_error = 0.0\nsamples = 1\nvalue = 80.558", fillcolor="#eeac7c"] ;
94 -> 96 ;
97 [label="squared_error = 0.0\nsamples = 1\nvalue = 87.731", fillcolor="#eca26d"] ;
93 -> 97 ;
98 [label="SSS - anomaly <= 0.035\nsquared_error = 67.268\nsamples = 5\nvalue = 61.835", fillcolor="#f3c5a4"] ;
74 -> 98 ;
99 [label="SSS - climatology <= 34.935\nsquared_error = 0.645\nsamples = 2\nvalue = 52.549", fillcolor="#f6d1b7"] ;
98 -> 99 ;
100 [label="squared_error = 0.0\nsamples = 1\nvalue = 53.352", fillcolor="#f5d0b5"] ;
99 -> 100 ;
101 [label="squared_error = 0.0\nsamples = 1\nvalue = 51.745", fillcolor="#f6d2b9"] ;
99 -> 101 ;
102 [label="SSS - anomaly <= 0.381\nsquared_error = 15.874\nsamples = 3\nvalue = 68.025", fillcolor="#f1bd97"] ;
98 -> 102 ;
103 [label="SSS - climatology <= 34.935\nsquared_error = 0.269\nsamples = 2\nvalue = 65.224", fillcolor="#f2c09c"] ;
102 -> 103 ;
104 [label="squared_error = 0.0\nsamples = 1\nvalue = 64.705", fillcolor="#f2c19e"] ;
103 -> 104 ;
105 [label="squared_error = 0.0\nsamples = 1\nvalue = 65.743", fillcolor="#f2c09b"] ;
103 -> 105 ;
106 [label="squared_error = 0.0\nsamples = 1\nvalue = 73.628", fillcolor="#f0b58b"] ;
102 -> 106 ;
107 [label="SSS - anomaly <= -0.207\nsquared_error = 184.192\nsamples = 75\nvalue = 80.778", fillcolor="#eeab7c"] ;
3 -> 107 ;
108 [label="SST - anomaly <= -0.601\nsquared_error = 125.292\nsamples = 14\nvalue = 69.028", fillcolor="#f1bb94"] ;
107 -> 108 ;
109 [label="squared_error = 0.0\nsamples = 1\nvalue = 98.828", fillcolor="#e99356"] ;
108 -> 109 ;
110 [label="SST - anomaly <= 0.365\nsquared_error = 61.362\nsamples = 13\nvalue = 66.736", fillcolor="#f2be99"] ;
108 -> 110 ;
111 [label="SSS - climatology <= 34.969\nsquared_error = 38.094\nsamples = 11\nvalue = 69.007", fillcolor="#f1bb94"] ;
110 -> 111 ;
112 [label="month of year <= 36.5\nsquared_error = 20.046\nsamples = 9\nvalue = 66.811", fillcolor="#f2be99"] ;
111 -> 112 ;
113 [label="SSH - anomaly <= 0.005\nsquared_error = 5.09\nsamples = 3\nvalue = 61.453", fillcolor="#f3c5a4"] ;
112 -> 113 ;
114 [label="SSH - climatology <= 0.782\nsquared_error = 0.733\nsamples = 2\nvalue = 59.936", fillcolor="#f4c7a8"] ;
113 -> 114 ;
115 [label="squared_error = 0.0\nsamples = 1\nvalue = 60.792", fillcolor="#f3c6a6"] ;
114 -> 115 ;
116 [label="squared_error = 0.0\nsamples = 1\nvalue = 59.08", fillcolor="#f4c8a9"] ;
114 -> 116 ;
117 [label="squared_error = 0.0\nsamples = 1\nvalue = 64.487", fillcolor="#f2c19e"] ;
113 -> 117 ;
118 [label="SSS - anomaly <= -0.24\nsquared_error = 5.991\nsamples = 6\nvalue = 69.49", fillcolor="#f1bb93"] ;
112 -> 118 ;
119 [label="SST - anomaly <= 0.263\nsquared_error = 1.494\nsamples = 5\nvalue = 68.516", fillcolor="#f1bc95"] ;
118 -> 119 ;
120 [label="SSS - anomaly <= -0.35\nsquared_error = 0.177\nsamples = 4\nvalue = 67.935", fillcolor="#f1bd97"] ;
119 -> 120 ;
121 [label="SSS - anomaly <= -0.452\nsquared_error = 0.006\nsamples = 2\nvalue = 67.556", fillcolor="#f1bd98"] ;
120 -> 121 ;
122 [label="squared_error = 0.0\nsamples = 1\nvalue = 67.481", fillcolor="#f1bd98"] ;
121 -> 122 ;
123 [label="squared_error = 0.0\nsamples = 1\nvalue = 67.632", fillcolor="#f1bd97"] ;
121 -> 123 ;
124 [label="SSH - anomaly <= 0.015\nsquared_error = 0.062\nsamples = 2\nvalue = 68.313", fillcolor="#f1bc96"] ;
120 -> 124 ;
125 [label="squared_error = 0.0\nsamples = 1\nvalue = 68.064", fillcolor="#f1bc96"] ;
124 -> 125 ;
126 [label="squared_error = 0.0\nsamples = 1\nvalue = 68.563", fillcolor="#f1bc95"] ;
124 -> 126 ;
127 [label="squared_error = 0.0\nsamples = 1\nvalue = 70.842", fillcolor="#f1b991"] ;
119 -> 127 ;
128 [label="squared_error = 0.0\nsamples = 1\nvalue = 74.362", fillcolor="#f0b489"] ;
118 -> 128 ;
129 [label="SSS - anomaly <= -0.451\nsquared_error = 0.007\nsamples = 2\nvalue = 78.887", fillcolor="#eeae80"] ;
111 -> 129 ;
130 [label="squared_error = 0.0\nsamples = 1\nvalue = 78.801", fillcolor="#eeae80"] ;
129 -> 130 ;
131 [label="squared_error = 0.0\nsamples = 1\nvalue = 78.972", fillcolor="#eeae80"] ;
129 -> 131 ;
132 [label="SST - climatology <= 26.292\nsquared_error = 4.914\nsamples = 2\nvalue = 54.244", fillcolor="#f5cfb3"] ;
110 -> 132 ;
133 [label="squared_error = 0.0\nsamples = 1\nvalue = 56.46", fillcolor="#f4ccaf"] ;
132 -> 133 ;
134 [label="squared_error = 0.0\nsamples = 1\nvalue = 52.027", fillcolor="#f6d2b8"] ;
132 -> 134 ;
135 [label="SST - climatology <= 26.81\nsquared_error = 158.753\nsamples = 61\nvalue = 83.474", fillcolor="#eda876"] ;
107 -> 135 ;
136 [label="SSH - anomaly <= 0.046\nsquared_error = 192.623\nsamples = 41\nvalue = 86.082", fillcolor="#eca471"] ;
135 -> 136 ;
137 [label="SST - anomaly <= 0.548\nsquared_error = 201.068\nsamples = 31\nvalue = 83.388", fillcolor="#eda876"] ;
136 -> 137 ;
138 [label="SST - anomaly <= 0.439\nsquared_error = 167.77\nsamples = 27\nvalue = 86.112", fillcolor="#eca471"] ;
137 -> 138 ;
139 [label="SST - anomaly <= 0.016\nsquared_error = 159.191\nsamples = 25\nvalue = 84.898", fillcolor="#eda673"] ;
138 -> 139 ;
140 [label="SSH - anomaly <= -0.01\nsquared_error = 64.135\nsamples = 9\nvalue = 91.627", fillcolor="#eb9d65"] ;
139 -> 140 ;
141 [label="SST - anomaly <= -0.212\nsquared_error = 1.388\nsamples = 2\nvalue = 80.458", fillcolor="#eeac7c"] ;
140 -> 141 ;
142 [label="squared_error = 0.0\nsamples = 1\nvalue = 79.28", fillcolor="#eead7f"] ;
141 -> 142 ;
143 [label="squared_error = 0.0\nsamples = 1\nvalue = 81.636", fillcolor="#eeaa7a"] ;
141 -> 143 ;
144 [label="SST - anomaly <= -0.411\nsquared_error = 36.241\nsamples = 7\nvalue = 94.818", fillcolor="#ea995e"] ;
140 -> 144 ;
145 [label="SSH - anomaly <= 0.006\nsquared_error = 3.701\nsamples = 2\nvalue = 101.157", fillcolor="#e89051"] ;
144 -> 145 ;
146 [label="squared_error = 0.0\nsamples = 1\nvalue = 103.081", fillcolor="#e88e4d"] ;
145 -> 146 ;
147 [label="squared_error = 0.0\nsamples = 1\nvalue = 99.233", fillcolor="#e99355"] ;
145 -> 147 ;
148 [label="SST - anomaly <= -0.131\nsquared_error = 26.753\nsamples = 5\nvalue = 92.282", fillcolor="#eb9c64"] ;
144 -> 148 ;
149 [label="month of year <= 175.5\nsquared_error = 0.977\nsamples = 2\nvalue = 87.651", fillcolor="#eca26d"] ;
148 -> 149 ;
150 [label="squared_error = 0.0\nsamples = 1\nvalue = 88.64", fillcolor="#eca16b"] ;
149 -> 150 ;
151 [label="squared_error = 0.0\nsamples = 1\nvalue = 86.662", fillcolor="#eca46f"] ;
149 -> 151 ;
152 [label="month of year <= 529.5\nsquared_error = 20.108\nsamples = 3\nvalue = 95.369", fillcolor="#ea985d"] ;
148 -> 152 ;
153 [label="month of year <= 272.0\nsquared_error = 20.367\nsamples = 2\nvalue = 93.562", fillcolor="#ea9a61"] ;
152 -> 153 ;
154 [label="squared_error = 0.0\nsamples = 1\nvalue = 98.075", fillcolor="#e99457"] ;
153 -> 154 ;
155 [label="squared_error = 0.0\nsamples = 1\nvalue = 89.049", fillcolor="#eba06a"] ;
153 -> 155 ;
156 [label="squared_error = 0.0\nsamples = 1\nvalue = 98.983", fillcolor="#e99355"] ;
152 -> 156 ;
157 [label="SSH - anomaly <= -0.006\nsquared_error = 172.868\nsamples = 16\nvalue = 81.113", fillcolor="#eeab7b"] ;
139 -> 157 ;
158 [label="squared_error = 0.0\nsamples = 1\nvalue = 56.666", fillcolor="#f4ccae"] ;
157 -> 158 ;
159 [label="SST - anomaly <= 0.173\nsquared_error = 141.893\nsamples = 15\nvalue = 82.743", fillcolor="#eda978"] ;
157 -> 159 ;
160 [label="SSH - anomaly <= -0.001\nsquared_error = 89.482\nsamples = 7\nvalue = 74.442", fillcolor="#f0b489"] ;
159 -> 160 ;
161 [label="squared_error = 0.0\nsamples = 1\nvalue = 94.768", fillcolor="#ea995e"] ;
160 -> 161 ;
162 [label="SST - anomaly <= 0.043\nsquared_error = 24.067\nsamples = 6\nvalue = 71.055", fillcolor="#f0b890"] ;
160 -> 162 ;
163 [label="SSH - anomaly <= 0.02\nsquared_error = 2.11\nsamples = 2\nvalue = 76.992", fillcolor="#efb184"] ;
162 -> 163 ;
164 [label="squared_error = 0.0\nsamples = 1\nvalue = 78.444", fillcolor="#eeaf81"] ;
163 -> 164 ;
165 [label="squared_error = 0.0\nsamples = 1\nvalue = 75.539", fillcolor="#efb287"] ;
163 -> 165 ;
166 [label="SSH - anomaly <= 0.001\nsquared_error = 8.61\nsamples = 4\nvalue = 68.086", fillcolor="#f1bc96"] ;
162 -> 166 ;
167 [label="squared_error = 0.0\nsamples = 1\nvalue = 63.332", fillcolor="#f3c3a0"] ;
166 -> 167 ;
168 [label="squared_error = 1.435\nsamples = 3\nvalue = 69.671", fillcolor="#f1ba93"] ;
166 -> 168 ;
169 [label="SSS - anomaly <= 0.13\nsquared_error = 74.713\nsamples = 8\nvalue = 90.006", fillcolor="#eb9f68"] ;
159 -> 169 ;
170 [label="month of year <= 392.0\nsquared_error = 20.875\nsamples = 3\nvalue = 83.0", fillcolor="#eda877"] ;
169 -> 170 ;
171 [label="SSS - climatology <= 34.969\nsquared_error = 2.941\nsamples = 2\nvalue = 86.075", fillcolor="#eca471"] ;
170 -> 171 ;
172 [label="squared_error = 0.0\nsamples = 1\nvalue = 87.79", fillcolor="#eca26d"] ;
171 -> 172 ;
173 [label="squared_error = 0.0\nsamples = 1\nvalue = 84.36", fillcolor="#eda774"] ;
171 -> 173 ;
174 [label="squared_error = 0.0\nsamples = 1\nvalue = 76.849", fillcolor="#efb184"] ;
170 -> 174 ;
175 [label="SSS - anomaly <= 0.161\nsquared_error = 59.897\nsamples = 5\nvalue = 94.209", fillcolor="#ea9a60"] ;
169 -> 175 ;
176 [label="squared_error = 0.0\nsamples = 1\nvalue = 107.098", fillcolor="#e78844"] ;
175 -> 176 ;
177 [label="month of year <= 631.0\nsquared_error = 22.958\nsamples = 4\nvalue = 90.987", fillcolor="#eb9e66"] ;
175 -> 177 ;
178 [label="squared_error = 8.756\nsamples = 3\nvalue = 93.325", fillcolor="#ea9b61"] ;
177 -> 178 ;
179 [label="squared_error = 0.0\nsamples = 1\nvalue = 83.975", fillcolor="#eda775"] ;
177 -> 179 ;
180 [label="SSS - anomaly <= 0.256\nsquared_error = 26.085\nsamples = 2\nvalue = 101.294", fillcolor="#e89051"] ;
138 -> 180 ;
181 [label="squared_error = 0.0\nsamples = 1\nvalue = 96.187", fillcolor="#ea975b"] ;
180 -> 181 ;
182 [label="squared_error = 0.0\nsamples = 1\nvalue = 106.402", fillcolor="#e78946"] ;
180 -> 182 ;
183 [label="SST - anomaly <= 0.609\nsquared_error = 37.489\nsamples = 4\nvalue = 64.997", fillcolor="#f2c19d"] ;
137 -> 183 ;
184 [label="SSH - anomaly <= 0.002\nsquared_error = 4.743\nsamples = 2\nvalue = 70.501", fillcolor="#f1b991"] ;
183 -> 184 ;
185 [label="squared_error = 0.0\nsamples = 1\nvalue = 72.679", fillcolor="#f0b68d"] ;
184 -> 185 ;
186 [label="squared_error = 0.0\nsamples = 1\nvalue = 68.323", fillcolor="#f1bc96"] ;
184 -> 186 ;
187 [label="month of year <= 530.0\nsquared_error = 9.651\nsamples = 2\nvalue = 59.493", fillcolor="#f4c8a8"] ;
183 -> 187 ;
188 [label="squared_error = 0.0\nsamples = 1\nvalue = 56.386", fillcolor="#f4ccaf"] ;
187 -> 188 ;
189 [label="squared_error = 0.0\nsamples = 1\nvalue = 62.6", fillcolor="#f3c4a2"] ;
187 -> 189 ;
190 [label="month of year <= 253.5\nsquared_error = 74.198\nsamples = 10\nvalue = 94.433", fillcolor="#ea995f"] ;
136 -> 190 ;
191 [label="squared_error = 0.0\nsamples = 1\nvalue = 112.546", fillcolor="#e58139"] ;
190 -> 191 ;
192 [label="SSS - anomaly <= -0.035\nsquared_error = 41.941\nsamples = 9\nvalue = 92.421", fillcolor="#eb9c63"] ;
190 -> 192 ;
193 [label="squared_error = 0.0\nsamples = 1\nvalue = 77.269", fillcolor="#efb083"] ;
192 -> 193 ;
194 [label="SSH - anomaly <= 0.113\nsquared_error = 14.898\nsamples = 8\nvalue = 94.315", fillcolor="#ea995f"] ;
192 -> 194 ;
195 [label="SSS - anomaly <= 0.092\nsquared_error = 4.448\nsamples = 7\nvalue = 93.061", fillcolor="#ea9b62"] ;
194 -> 195 ;
196 [label="SSH - anomaly <= 0.074\nsquared_error = 0.978\nsamples = 3\nvalue = 90.834", fillcolor="#eb9e67"] ;
195 -> 196 ;
197 [label="squared_error = 0.0\nsamples = 1\nvalue = 89.442", fillcolor="#eba06a"] ;
196 -> 197 ;
198 [label="SSH - anomaly <= 0.101\nsquared_error = 0.013\nsamples = 2\nvalue = 91.53", fillcolor="#eb9d65"] ;
196 -> 198 ;
199 [label="squared_error = 0.0\nsamples = 1\nvalue = 91.417", fillcolor="#eb9d65"] ;
198 -> 199 ;
200 [label="squared_error = 0.0\nsamples = 1\nvalue = 91.644", fillcolor="#eb9d65"] ;
198 -> 200 ;
201 [label="SSS - anomaly <= 0.133\nsquared_error = 0.543\nsamples = 4\nvalue = 94.731", fillcolor="#ea995e"] ;
195 -> 201 ;
202 [label="SSH - anomaly <= 0.053\nsquared_error = 0.082\nsamples = 3\nvalue = 94.33", fillcolor="#ea995f"] ;
201 -> 202 ;
203 [label="squared_error = 0.0\nsamples = 1\nvalue = 93.97", fillcolor="#ea9a60"] ;
202 -> 203 ;
204 [label="SST - anomaly <= 0.177\nsquared_error = 0.025\nsamples = 2\nvalue = 94.511", fillcolor="#ea995f"] ;
202 -> 204 ;
205 [label="squared_error = 0.0\nsamples = 1\nvalue = 94.353", fillcolor="#ea995f"] ;
204 -> 205 ;
206 [label="squared_error = 0.0\nsamples = 1\nvalue = 94.668", fillcolor="#ea995f"] ;
204 -> 206 ;
207 [label="squared_error = 0.0\nsamples = 1\nvalue = 95.933", fillcolor="#ea975c"] ;
201 -> 207 ;
208 [label="squared_error = 0.0\nsamples = 1\nvalue = 103.093", fillcolor="#e88e4d"] ;
194 -> 208 ;
209 [label="SSH - anomaly <= 0.036\nsquared_error = 46.805\nsamples = 20\nvalue = 78.129", fillcolor="#eeaf81"] ;
135 -> 209 ;
210 [label="SST - anomaly <= 0.325\nsquared_error = 25.585\nsamples = 9\nvalue = 74.287", fillcolor="#f0b489"] ;
209 -> 210 ;
211 [label="SSS - anomaly <= -0.134\nsquared_error = 10.605\nsamples = 7\nvalue = 76.204", fillcolor="#efb285"] ;
210 -> 211 ;
212 [label="squared_error = 0.0\nsamples = 1\nvalue = 82.006", fillcolor="#edaa79"] ;
211 -> 212 ;
213 [label="month of year <= 78.0\nsquared_error = 5.827\nsamples = 6\nvalue = 75.237", fillcolor="#efb387"] ;
211 -> 213 ;
214 [label="squared_error = 0.0\nsamples = 1\nvalue = 70.887", fillcolor="#f0b991"] ;
213 -> 214 ;
215 [label="SSS - anomaly <= 0.012\nsquared_error = 2.45\nsamples = 5\nvalue = 76.107", fillcolor="#efb286"] ;
213 -> 215 ;
216 [label="SSS - anomaly <= -0.034\nsquared_error = 0.201\nsamples = 3\nvalue = 75.349", fillcolor="#efb387"] ;
215 -> 216 ;
217 [label="SSH - anomaly <= 0.012\nsquared_error = 0.012\nsamples = 2\nvalue = 75.038", fillcolor="#efb388"] ;
216 -> 217 ;
218 [label="squared_error = 0.0\nsamples = 1\nvalue = 75.146", fillcolor="#efb388"] ;
217 -> 218 ;
219 [label="squared_error = 0.0\nsamples = 1\nvalue = 74.929", fillcolor="#efb388"] ;
217 -> 219 ;
220 [label="squared_error = 0.0\nsamples = 1\nvalue = 75.971", fillcolor="#efb286"] ;
216 -> 220 ;
221 [label="month of year <= 216.0\nsquared_error = 3.665\nsamples = 2\nvalue = 77.246", fillcolor="#efb083"] ;
215 -> 221 ;
222 [label="squared_error = 0.0\nsamples = 1\nvalue = 79.16", fillcolor="#eeae7f"] ;
221 -> 222 ;
223 [label="squared_error = 0.0\nsamples = 1\nvalue = 75.331", fillcolor="#efb387"] ;
221 -> 223 ;
224 [label="SST - anomaly <= 0.409\nsquared_error = 20.111\nsamples = 2\nvalue = 67.576", fillcolor="#f1bd97"] ;
210 -> 224 ;
225 [label="squared_error = 0.0\nsamples = 1\nvalue = 63.091", fillcolor="#f3c3a1"] ;
224 -> 225 ;
226 [label="squared_error = 0.0\nsamples = 1\nvalue = 72.06", fillcolor="#f0b78e"] ;
224 -> 226 ;
227 [label="SST - anomaly <= 0.752\nsquared_error = 42.21\nsamples = 11\nvalue = 81.272", fillcolor="#eeab7b"] ;
209 -> 227 ;
228 [label="SSH - anomaly <= 0.054\nsquared_error = 29.702\nsamples = 10\nvalue = 82.505", fillcolor="#eda978"] ;
227 -> 228 ;
229 [label="SSS - anomaly <= -0.049\nsquared_error = 21.874\nsamples = 4\nvalue = 79.248", fillcolor="#eeae7f"] ;
228 -> 229 ;
230 [label="squared_error = 0.0\nsamples = 1\nvalue = 86.972", fillcolor="#eca36f"] ;
229 -> 230 ;
231 [label="SSH - anomaly <= 0.047\nsquared_error = 2.649\nsamples = 3\nvalue = 76.673", fillcolor="#efb184"] ;
229 -> 231 ;
232 [label="SST - anomaly <= 0.047\nsquared_error = 0.383\nsamples = 2\nvalue = 75.579", fillcolor="#efb287"] ;
231 -> 232 ;
233 [label="squared_error = 0.0\nsamples = 1\nvalue = 74.96", fillcolor="#efb388"] ;
232 -> 233 ;
234 [label="squared_error = 0.0\nsamples = 1\nvalue = 76.198", fillcolor="#efb285"] ;
232 -> 234 ;
235 [label="squared_error = 0.0\nsamples = 1\nvalue = 78.861", fillcolor="#eeae80"] ;
231 -> 235 ;
236 [label="SSS - anomaly <= 0.265\nsquared_error = 23.128\nsamples = 6\nvalue = 84.677", fillcolor="#eda674"] ;
228 -> 236 ;
237 [label="SSH - anomaly <= 0.076\nsquared_error = 10.526\nsamples = 5\nvalue = 82.983", fillcolor="#eda977"] ;
236 -> 237 ;
238 [label="SSS - anomaly <= 0.165\nsquared_error = 7.847\nsamples = 2\nvalue = 79.897", fillcolor="#eead7e"] ;
237 -> 238 ;
239 [label="squared_error = 0.0\nsamples = 1\nvalue = 77.096", fillcolor="#efb083"] ;
238 -> 239 ;
240 [label="squared_error = 0.0\nsamples = 1\nvalue = 82.698", fillcolor="#eda978"] ;
238 -> 240 ;
241 [label="SSH - anomaly <= 0.118\nsquared_error = 1.731\nsamples = 3\nvalue = 85.04", fillcolor="#eda673"] ;
237 -> 241 ;
242 [label="month of year <= 444.0\nsquared_error = 0.003\nsamples = 2\nvalue = 84.11", fillcolor="#eda775"] ;
241 -> 242 ;
243 [label="squared_error = 0.0\nsamples = 1\nvalue = 84.163", fillcolor="#eda775"] ;
242 -> 243 ;
244 [label="squared_error = 0.0\nsamples = 1\nvalue = 84.057", fillcolor="#eda775"] ;
242 -> 244 ;
245 [label="squared_error = 0.0\nsamples = 1\nvalue = 86.9", fillcolor="#eca36f"] ;
241 -> 245 ;
246 [label="squared_error = 0.0\nsamples = 1\nvalue = 93.15", fillcolor="#ea9b62"] ;
236 -> 246 ;
247 [label="squared_error = 0.0\nsamples = 1\nvalue = 68.94", fillcolor="#f1bb95"] ;
227 -> 247 ;
248 [label="SSH - anomaly <= 0.004\nsquared_error = 71.762\nsamples = 50\nvalue = 58.992", fillcolor="#f4c9aa"] ;
2 -> 248 ;
249 [label="SSS - anomaly <= -0.154\nsquared_error = 25.042\nsamples = 27\nvalue = 54.093", fillcolor="#f5cfb4"] ;
248 -> 249 ;
250 [label="SSH - anomaly <= -0.084\nsquared_error = 10.864\nsamples = 7\nvalue = 49.64", fillcolor="#f6d5bd"] ;
249 -> 250 ;
251 [label="squared_error = 0.0\nsamples = 1\nvalue = 44.998", fillcolor="#f8dbc7"] ;
250 -> 251 ;
252 [label="SST - anomaly <= 0.061\nsquared_error = 8.484\nsamples = 6\nvalue = 50.414", fillcolor="#f6d4bc"] ;
250 -> 252 ;
253 [label="month of year <= 113.0\nsquared_error = 1.506\nsamples = 3\nvalue = 52.639", fillcolor="#f6d1b7"] ;
252 -> 253 ;
254 [label="squared_error = 0.0\nsamples = 1\nvalue = 50.904", fillcolor="#f6d3bb"] ;
253 -> 254 ;
255 [label="SSH - anomaly <= -0.066\nsquared_error = 0.001\nsamples = 2\nvalue = 53.507", fillcolor="#f5d0b5"] ;
253 -> 255 ;
256 [label="squared_error = 0.0\nsamples = 1\nvalue = 53.539", fillcolor="#f5d0b5"] ;
255 -> 256 ;
257 [label="squared_error = 0.0\nsamples = 1\nvalue = 53.474", fillcolor="#f5d0b5"] ;
255 -> 257 ;
258 [label="SSS - anomaly <= -0.28\nsquared_error = 5.562\nsamples = 3\nvalue = 48.189", fillcolor="#f7d7c0"] ;
252 -> 258 ;
259 [label="month of year <= 245.0\nsquared_error = 0.01\nsamples = 2\nvalue = 49.856", fillcolor="#f6d5bd"] ;
258 -> 259 ;
260 [label="squared_error = 0.0\nsamples = 1\nvalue = 49.958", fillcolor="#f6d5bc"] ;
259 -> 260 ;
261 [label="squared_error = 0.0\nsamples = 1\nvalue = 49.754", fillcolor="#f6d5bd"] ;
259 -> 261 ;
262 [label="squared_error = 0.0\nsamples = 1\nvalue = 44.856", fillcolor="#f8dbc7"] ;
258 -> 262 ;
263 [label="SSH - anomaly <= -0.026\nsquared_error = 20.637\nsamples = 20\nvalue = 55.651", fillcolor="#f5cdb1"] ;
249 -> 263 ;
264 [label="month of year <= 323.0\nsquared_error = 12.639\nsamples = 13\nvalue = 53.772", fillcolor="#f5d0b4"] ;
263 -> 264 ;
265 [label="SSS - anomaly <= -0.068\nsquared_error = 3.219\nsamples = 6\nvalue = 51.491", fillcolor="#f6d3b9"] ;
264 -> 265 ;
266 [label="SST - anomaly <= 0.153\nsquared_error = 1.178\nsamples = 2\nvalue = 49.588", fillcolor="#f6d5bd"] ;
265 -> 266 ;
267 [label="squared_error = 0.0\nsamples = 1\nvalue = 48.503", fillcolor="#f7d7c0"] ;
266 -> 267 ;
268 [label="squared_error = 0.0\nsamples = 1\nvalue = 50.673", fillcolor="#f6d4bb"] ;
266 -> 268 ;
269 [label="SSH - anomaly <= -0.067\nsquared_error = 1.522\nsamples = 4\nvalue = 52.443", fillcolor="#f6d1b7"] ;
265 -> 269 ;
270 [label="SST - anomaly <= -0.423\nsquared_error = 0.092\nsamples = 2\nvalue = 51.27", fillcolor="#f6d3ba"] ;
269 -> 270 ;
271 [label="squared_error = 0.0\nsamples = 1\nvalue = 51.573", fillcolor="#f6d3b9"] ;
270 -> 271 ;
272 [label="squared_error = 0.0\nsamples = 1\nvalue = 50.967", fillcolor="#f6d3ba"] ;
270 -> 272 ;
273 [label="SSH - anomaly <= -0.06\nsquared_error = 0.2\nsamples = 2\nvalue = 53.616", fillcolor="#f5d0b5"] ;
269 -> 273 ;
274 [label="squared_error = 0.0\nsamples = 1\nvalue = 53.169", fillcolor="#f5d0b6"] ;
273 -> 274 ;
275 [label="squared_error = 0.0\nsamples = 1\nvalue = 54.063", fillcolor="#f5cfb4"] ;
273 -> 275 ;
276 [label="SST - anomaly <= -0.633\nsquared_error = 12.435\nsamples = 7\nvalue = 55.727", fillcolor="#f5cdb0"] ;
264 -> 276 ;
277 [label="squared_error = 0.0\nsamples = 1\nvalue = 49.087", fillcolor="#f7d6be"] ;
276 -> 277 ;
278 [label="month of year <= 377.0\nsquared_error = 5.935\nsamples = 6\nvalue = 56.833", fillcolor="#f4cbae"] ;
276 -> 278 ;
279 [label="SST - anomaly <= -0.296\nsquared_error = 1.81\nsamples = 2\nvalue = 54.755", fillcolor="#f5ceb2"] ;
278 -> 279 ;
280 [label="squared_error = 0.0\nsamples = 1\nvalue = 53.409", fillcolor="#f5d0b5"] ;
279 -> 280 ;
281 [label="squared_error = 0.0\nsamples = 1\nvalue = 56.1", fillcolor="#f5ccb0"] ;
279 -> 281 ;
282 [label="SSS - anomaly <= 0.177\nsquared_error = 4.756\nsamples = 4\nvalue = 57.873", fillcolor="#f4caac"] ;
278 -> 282 ;
283 [label="SSS - anomaly <= 0.052\nsquared_error = 0.025\nsamples = 2\nvalue = 59.949", fillcolor="#f4c7a7"] ;
282 -> 283 ;
284 [label="squared_error = 0.0\nsamples = 1\nvalue = 59.79", fillcolor="#f4c8a8"] ;
283 -> 284 ;
285 [label="squared_error = 0.0\nsamples = 1\nvalue = 60.107", fillcolor="#f3c7a7"] ;
283 -> 285 ;
286 [label="month of year <= 551.0\nsquared_error = 0.869\nsamples = 2\nvalue = 55.797", fillcolor="#f5cdb0"] ;
282 -> 286 ;
287 [label="squared_error = 0.0\nsamples = 1\nvalue = 56.729", fillcolor="#f4ccae"] ;
286 -> 287 ;
288 [label="squared_error = 0.0\nsamples = 1\nvalue = 54.865", fillcolor="#f5ceb2"] ;
286 -> 288 ;
289 [label="SSH - anomaly <= -0.013\nsquared_error = 16.752\nsamples = 7\nvalue = 59.141", fillcolor="#f4c8a9"] ;
263 -> 289 ;
290 [label="SSH - anomaly <= -0.015\nsquared_error = 4.648\nsamples = 3\nvalue = 62.735", fillcolor="#f3c4a2"] ;
289 -> 290 ;
291 [label="SST - anomaly <= -0.192\nsquared_error = 1.714\nsamples = 2\nvalue = 61.411", fillcolor="#f3c5a4"] ;
290 -> 291 ;
292 [label="squared_error = 0.0\nsamples = 1\nvalue = 62.72", fillcolor="#f3c4a2"] ;
291 -> 292 ;
293 [label="squared_error = 0.0\nsamples = 1\nvalue = 60.102", fillcolor="#f3c7a7"] ;
291 -> 293 ;
294 [label="squared_error = 0.0\nsamples = 1\nvalue = 65.382", fillcolor="#f2c09c"] ;
290 -> 294 ;
295 [label="SSS - anomaly <= -0.102\nsquared_error = 8.88\nsamples = 4\nvalue = 56.446", fillcolor="#f4ccaf"] ;
289 -> 295 ;
296 [label="squared_error = 0.0\nsamples = 1\nvalue = 61.274", fillcolor="#f3c6a5"] ;
295 -> 296 ;
297 [label="month of year <= 287.0\nsquared_error = 1.481\nsamples = 3\nvalue = 54.837", fillcolor="#f5ceb2"] ;
295 -> 297 ;
298 [label="SSH - anomaly <= -0.005\nsquared_error = 0.337\nsamples = 2\nvalue = 55.629", fillcolor="#f5cdb1"] ;
297 -> 298 ;
299 [label="squared_error = 0.0\nsamples = 1\nvalue = 55.049", fillcolor="#f5ceb2"] ;
298 -> 299 ;
300 [label="squared_error = 0.0\nsamples = 1\nvalue = 56.21", fillcolor="#f5ccaf"] ;
298 -> 300 ;
301 [label="squared_error = 0.0\nsamples = 1\nvalue = 53.252", fillcolor="#f5d0b6"] ;
297 -> 301 ;
302 [label="SSS - anomaly <= -0.123\nsquared_error = 65.366\nsamples = 23\nvalue = 64.742", fillcolor="#f2c19d"] ;
248 -> 302 ;
303 [label="SSS - anomaly <= -0.294\nsquared_error = 57.189\nsamples = 3\nvalue = 49.282", fillcolor="#f6d6be"] ;
302 -> 303 ;
304 [label="squared_error = 0.0\nsamples = 1\nvalue = 39.688", fillcolor="#f9e2d2"] ;
303 -> 304 ;
305 [label="SST - anomaly <= 0.499\nsquared_error = 16.739\nsamples = 2\nvalue = 54.08", fillcolor="#f5cfb4"] ;
303 -> 305 ;
306 [label="squared_error = 0.0\nsamples = 1\nvalue = 58.171", fillcolor="#f4caab"] ;
305 -> 306 ;
307 [label="squared_error = 0.0\nsamples = 1\nvalue = 49.988", fillcolor="#f6d5bc"] ;
305 -> 307 ;
308 [label="SSH - anomaly <= 0.025\nsquared_error = 25.363\nsamples = 20\nvalue = 67.061", fillcolor="#f2be99"] ;
302 -> 308 ;
309 [label="SSS - anomaly <= 0.196\nsquared_error = 15.66\nsamples = 8\nvalue = 62.941", fillcolor="#f3c3a1"] ;
308 -> 309 ;
310 [label="month of year <= 593.0\nsquared_error = 8.558\nsamples = 6\nvalue = 61.189", fillcolor="#f3c6a5"] ;
309 -> 310 ;
311 [label="SSH - anomaly <= 0.008\nsquared_error = 1.258\nsamples = 5\nvalue = 62.415", fillcolor="#f3c4a2"] ;
310 -> 311 ;
312 [label="SSH - anomaly <= 0.007\nsquared_error = 0.104\nsamples = 2\nvalue = 61.166", fillcolor="#f3c6a5"] ;
311 -> 312 ;
313 [label="squared_error = 0.0\nsamples = 1\nvalue = 61.489", fillcolor="#f3c5a4"] ;
312 -> 313 ;
314 [label="squared_error = 0.0\nsamples = 1\nvalue = 60.843", fillcolor="#f3c6a6"] ;
312 -> 314 ;
315 [label="SSS - anomaly <= -0.047\nsquared_error = 0.294\nsamples = 3\nvalue = 63.248", fillcolor="#f3c3a1"] ;
311 -> 315 ;
316 [label="squared_error = 0.0\nsamples = 1\nvalue = 62.535", fillcolor="#f3c4a2"] ;
315 -> 316 ;
317 [label="SST - anomaly <= 0.097\nsquared_error = 0.06\nsamples = 2\nvalue = 63.604", fillcolor="#f3c2a0"] ;
315 -> 317 ;
318 [label="squared_error = 0.0\nsamples = 1\nvalue = 63.359", fillcolor="#f3c3a0"] ;
317 -> 318 ;
319 [label="squared_error = 0.0\nsamples = 1\nvalue = 63.849", fillcolor="#f2c29f"] ;
317 -> 319 ;
320 [label="squared_error = 0.0\nsamples = 1\nvalue = 55.062", fillcolor="#f5ceb2"] ;
310 -> 320 ;
321 [label="month of year <= 473.0\nsquared_error = 0.148\nsamples = 2\nvalue = 68.196", fillcolor="#f1bc96"] ;
309 -> 321 ;
322 [label="squared_error = 0.0\nsamples = 1\nvalue = 67.812", fillcolor="#f1bd97"] ;
321 -> 322 ;
323 [label="squared_error = 0.0\nsamples = 1\nvalue = 68.58", fillcolor="#f1bc95"] ;
321 -> 323 ;
324 [label="SSS - anomaly <= 0.244\nsquared_error = 12.97\nsamples = 12\nvalue = 69.808", fillcolor="#f1ba93"] ;
308 -> 324 ;
325 [label="SSH - anomaly <= 0.122\nsquared_error = 10.165\nsamples = 9\nvalue = 68.508", fillcolor="#f1bc96"] ;
324 -> 325 ;
326 [label="month of year <= 521.0\nsquared_error = 3.391\nsamples = 8\nvalue = 67.562", fillcolor="#f1bd98"] ;
325 -> 326 ;
327 [label="SST - anomaly <= -0.153\nsquared_error = 1.173\nsamples = 5\nvalue = 68.737", fillcolor="#f1bc95"] ;
326 -> 327 ;
328 [label="SSS - anomaly <= 0.003\nsquared_error = 0.533\nsamples = 2\nvalue = 67.569", fillcolor="#f1bd97"] ;
327 -> 328 ;
329 [label="squared_error = 0.0\nsamples = 1\nvalue = 66.839", fillcolor="#f2be99"] ;
328 -> 329 ;
330 [label="squared_error = 0.0\nsamples = 1\nvalue = 68.299", fillcolor="#f1bc96"] ;
328 -> 330 ;
331 [label="SST - anomaly <= 0.01\nsquared_error = 0.086\nsamples = 3\nvalue = 69.515", fillcolor="#f1bb93"] ;
327 -> 331 ;
332 [label="squared_error = 0.0\nsamples = 1\nvalue = 69.114", fillcolor="#f1bb94"] ;
331 -> 332 ;
333 [label="SST - anomaly <= 0.16\nsquared_error = 0.008\nsamples = 2\nvalue = 69.715", fillcolor="#f1ba93"] ;
331 -> 333 ;
334 [label="squared_error = 0.0\nsamples = 1\nvalue = 69.806", fillcolor="#f1ba93"] ;
333 -> 334 ;
335 [label="squared_error = 0.0\nsamples = 1\nvalue = 69.625", fillcolor="#f1ba93"] ;
333 -> 335 ;
336 [label="SSH - anomaly <= 0.042\nsquared_error = 0.959\nsamples = 3\nvalue = 65.605", fillcolor="#f2c09c"] ;
326 -> 336 ;
337 [label="squared_error = 0.0\nsamples = 1\nvalue = 64.222", fillcolor="#f2c29f"] ;
336 -> 337 ;
338 [label="SSH - anomaly <= 0.061\nsquared_error = 0.002\nsamples = 2\nvalue = 66.297", fillcolor="#f2bf9a"] ;
336 -> 338 ;
339 [label="squared_error = 0.0\nsamples = 1\nvalue = 66.344", fillcolor="#f2bf9a"] ;
338 -> 339 ;
340 [label="squared_error = 0.0\nsamples = 1\nvalue = 66.251", fillcolor="#f2bf9a"] ;
338 -> 340 ;
341 [label="squared_error = 0.0\nsamples = 1\nvalue = 76.071", fillcolor="#efb286"] ;
325 -> 341 ;
342 [label="SST - anomaly <= 0.079\nsquared_error = 1.097\nsamples = 3\nvalue = 73.709", fillcolor="#f0b58b"] ;
324 -> 342 ;
343 [label="month of year <= 557.0\nsquared_error = 0.106\nsamples = 2\nvalue = 72.992", fillcolor="#f0b68c"] ;
342 -> 343 ;
344 [label="squared_error = 0.0\nsamples = 1\nvalue = 72.668", fillcolor="#f0b68d"] ;
343 -> 344 ;
345 [label="squared_error = 0.0\nsamples = 1\nvalue = 73.317", fillcolor="#f0b58b"] ;
343 -> 345 ;
346 [label="squared_error = 0.0\nsamples = 1\nvalue = 75.142", fillcolor="#efb388"] ;
342 -> 346 ;
347 [label="SST - climatology <= 26.706\nsquared_error = 225.268\nsamples = 133\nvalue = 46.629", fillcolor="#f7d9c3"] ;
1 -> 347 ;
348 [label="SSH - anomaly <= -0.021\nsquared_error = 227.524\nsamples = 87\nvalue = 51.886", fillcolor="#f6d2b8"] ;
347 -> 348 ;
349 [label="SST - anomaly <= -0.412\nsquared_error = 152.69\nsamples = 27\nvalue = 43.645", fillcolor="#f8ddca"] ;
348 -> 349 ;
350 [label="month of year <= 345.5\nsquared_error = 126.693\nsamples = 8\nvalue = 54.809", fillcolor="#f5ceb2"] ;
349 -> 350 ;
351 [label="month of year <= 280.0\nsquared_error = 58.28\nsamples = 6\nvalue = 49.596", fillcolor="#f6d5bd"] ;
350 -> 351 ;
352 [label="SSS - climatology <= 35.016\nsquared_error = 42.571\nsamples = 5\nvalue = 51.732", fillcolor="#f6d2b9"] ;
351 -> 352 ;
353 [label="month of year <= 124.0\nsquared_error = 3.051\nsamples = 3\nvalue = 55.872", fillcolor="#f5cdb0"] ;
352 -> 353 ;
354 [label="squared_error = 0.0\nsamples = 1\nvalue = 58.33", fillcolor="#f4c9ab"] ;
353 -> 354 ;
355 [label="SSH - anomaly <= -0.098\nsquared_error = 0.046\nsamples = 2\nvalue = 54.643", fillcolor="#f5ceb3"] ;
353 -> 355 ;
356 [label="squared_error = 0.0\nsamples = 1\nvalue = 54.857", fillcolor="#f5ceb2"] ;
355 -> 356 ;
357 [label="squared_error = 0.0\nsamples = 1\nvalue = 54.429", fillcolor="#f5cfb3"] ;
355 -> 357 ;
358 [label="SSH - anomaly <= -0.087\nsquared_error = 37.568\nsamples = 2\nvalue = 45.521", fillcolor="#f7dbc6"] ;
352 -> 358 ;
359 [label="squared_error = 0.0\nsamples = 1\nvalue = 39.392", fillcolor="#f9e3d3"] ;
358 -> 359 ;
360 [label="squared_error = 0.0\nsamples = 1\nvalue = 51.65", fillcolor="#f6d2b9"] ;
358 -> 360 ;
361 [label="squared_error = 0.0\nsamples = 1\nvalue = 38.918", fillcolor="#f9e3d4"] ;
351 -> 361 ;
362 [label="SST - anomaly <= -0.519\nsquared_error = 5.787\nsamples = 2\nvalue = 70.449", fillcolor="#f1b991"] ;
350 -> 362 ;
363 [label="squared_error = 0.0\nsamples = 1\nvalue = 72.855", fillcolor="#f0b68c"] ;
362 -> 363 ;
364 [label="squared_error = 0.0\nsamples = 1\nvalue = 68.044", fillcolor="#f1bc96"] ;
362 -> 364 ;
365 [label="SSH - anomaly <= -0.049\nsquared_error = 89.063\nsamples = 19\nvalue = 38.945", fillcolor="#f9e3d4"] ;
349 -> 365 ;
366 [label="SSS - anomaly <= 0.268\nsquared_error = 84.654\nsamples = 9\nvalue = 34.579", fillcolor="#fbe9dd"] ;
365 -> 366 ;
367 [label="SST - anomaly <= -0.296\nsquared_error = 21.409\nsamples = 7\nvalue = 30.171", fillcolor="#fcefe6"] ;
366 -> 367 ;
368 [label="squared_error = 0.0\nsamples = 1\nvalue = 24.032", fillcolor="#fdf7f3"] ;
367 -> 368 ;
369 [label="month of year <= 447.5\nsquared_error = 17.65\nsamples = 6\nvalue = 31.194", fillcolor="#fbeee4"] ;
367 -> 369 ;
370 [label="SST - anomaly <= -0.234\nsquared_error = 8.212\nsamples = 3\nvalue = 34.806", fillcolor="#fae9dc"] ;
369 -> 370 ;
371 [label="squared_error = 0.0\nsamples = 1\nvalue = 31.181", fillcolor="#fbeee4"] ;
370 -> 371 ;
372 [label="SSS - climatology <= 35.016\nsquared_error = 2.461\nsamples = 2\nvalue = 36.619", fillcolor="#fae7d9"] ;
370 -> 372 ;
373 [label="squared_error = 0.0\nsamples = 1\nvalue = 38.188", fillcolor="#fae4d5"] ;
372 -> 373 ;
374 [label="squared_error = 0.0\nsamples = 1\nvalue = 35.05", fillcolor="#fae9dc"] ;
372 -> 374 ;
375 [label="SSS - anomaly <= -0.113\nsquared_error = 0.992\nsamples = 3\nvalue = 27.582", fillcolor="#fcf3eb"] ;
369 -> 375 ;
376 [label="squared_error = 0.0\nsamples = 1\nvalue = 28.898", fillcolor="#fcf1e9"] ;
375 -> 376 ;
377 [label="SSH - anomaly <= -0.082\nsquared_error = 0.189\nsamples = 2\nvalue = 26.924", fillcolor="#fdf3ed"] ;
375 -> 377 ;
378 [label="squared_error = 0.0\nsamples = 1\nvalue = 27.359", fillcolor="#fdf3ec"] ;
377 -> 378 ;
379 [label="squared_error = 0.0\nsamples = 1\nvalue = 26.489", fillcolor="#fdf4ee"] ;
377 -> 379 ;
380 [label="SSS - anomaly <= 0.329\nsquared_error = 0.016\nsamples = 2\nvalue = 50.006", fillcolor="#f6d5bc"] ;
366 -> 380 ;
381 [label="squared_error = 0.0\nsamples = 1\nvalue = 49.881", fillcolor="#f6d5bd"] ;
380 -> 381 ;
382 [label="squared_error = 0.0\nsamples = 1\nvalue = 50.131", fillcolor="#f6d4bc"] ;
380 -> 382 ;
383 [label="SSH - anomaly <= -0.041\nsquared_error = 60.435\nsamples = 10\nvalue = 42.874", fillcolor="#f8decb"] ;
365 -> 383 ;
384 [label="month of year <= 405.0\nsquared_error = 36.243\nsamples = 4\nvalue = 50.599", fillcolor="#f6d4bb"] ;
383 -> 384 ;
385 [label="SST - anomaly <= -0.116\nsquared_error = 2.193\nsamples = 2\nvalue = 45.301", fillcolor="#f8dbc6"] ;
384 -> 385 ;
386 [label="squared_error = 0.0\nsamples = 1\nvalue = 43.82", fillcolor="#f8ddc9"] ;
385 -> 386 ;
387 [label="squared_error = 0.0\nsamples = 1\nvalue = 46.782", fillcolor="#f7d9c3"] ;
385 -> 387 ;
388 [label="SST - anomaly <= -0.046\nsquared_error = 14.159\nsamples = 2\nvalue = 55.896", fillcolor="#f5cdb0"] ;
384 -> 388 ;
389 [label="squared_error = 0.0\nsamples = 1\nvalue = 59.659", fillcolor="#f4c8a8"] ;
388 -> 389 ;
390 [label="squared_error = 0.0\nsamples = 1\nvalue = 52.134", fillcolor="#f6d2b8"] ;
388 -> 390 ;
391 [label="SSH - anomaly <= -0.024\nsquared_error = 10.267\nsamples = 6\nvalue = 37.725", fillcolor="#fae5d6"] ;
383 -> 391 ;
392 [label="SST - anomaly <= -0.089\nsquared_error = 1.998\nsamples = 4\nvalue = 35.616", fillcolor="#fae8db"] ;
391 -> 392 ;
393 [label="squared_error = 0.0\nsamples = 1\nvalue = 37.47", fillcolor="#fae5d7"] ;
392 -> 393 ;
394 [label="SST - anomaly <= 0.282\nsquared_error = 1.137\nsamples = 3\nvalue = 34.998", fillcolor="#fae9dc"] ;
392 -> 394 ;
395 [label="month of year <= 178.0\nsquared_error = 0.301\nsamples = 2\nvalue = 34.314", fillcolor="#fbeadd"] ;
394 -> 395 ;
396 [label="squared_error = 0.0\nsamples = 1\nvalue = 34.863", fillcolor="#fae9dc"] ;
395 -> 396 ;
397 [label="squared_error = 0.0\nsamples = 1\nvalue = 33.765", fillcolor="#fbeadf"] ;
395 -> 397 ;
398 [label="squared_error = 0.0\nsamples = 1\nvalue = 36.366", fillcolor="#fae7d9"] ;
394 -> 398 ;
399 [label="SSH - anomaly <= -0.022\nsquared_error = 0.13\nsamples = 2\nvalue = 41.942", fillcolor="#f8dfcd"] ;
391 -> 399 ;
400 [label="squared_error = 0.0\nsamples = 1\nvalue = 42.302", fillcolor="#f8dfcd"] ;
399 -> 400 ;
401 [label="squared_error = 0.0\nsamples = 1\nvalue = 41.581", fillcolor="#f9e0ce"] ;
399 -> 401 ;
402 [label="SSS - climatology <= 35.016\nsquared_error = 216.889\nsamples = 60\nvalue = 55.594", fillcolor="#f5cdb1"] ;
348 -> 402 ;
403 [label="SSS - anomaly <= 0.027\nsquared_error = 102.084\nsamples = 31\nvalue = 50.833", fillcolor="#f6d4bb"] ;
402 -> 403 ;
404 [label="SST - anomaly <= -0.339\nsquared_error = 81.939\nsamples = 16\nvalue = 47.298", fillcolor="#f7d8c2"] ;
403 -> 404 ;
405 [label="SSS - anomaly <= -0.315\nsquared_error = 57.284\nsamples = 4\nvalue = 57.939", fillcolor="#f4caac"] ;
404 -> 405 ;
406 [label="squared_error = 0.0\nsamples = 1\nvalue = 44.92", fillcolor="#f8dbc7"] ;
405 -> 406 ;
407 [label="SST - anomaly <= -0.441\nsquared_error = 1.044\nsamples = 3\nvalue = 62.279", fillcolor="#f3c4a3"] ;
405 -> 407 ;
408 [label="squared_error = 0.0\nsamples = 1\nvalue = 63.539", fillcolor="#f3c3a0"] ;
407 -> 408 ;
409 [label="SSH - anomaly <= 0.032\nsquared_error = 0.375\nsamples = 2\nvalue = 61.649", fillcolor="#f3c5a4"] ;
407 -> 409 ;
410 [label="squared_error = 0.0\nsamples = 1\nvalue = 61.037", fillcolor="#f3c6a5"] ;
409 -> 410 ;
411 [label="squared_error = 0.0\nsamples = 1\nvalue = 62.262", fillcolor="#f3c4a3"] ;
409 -> 411 ;
412 [label="SSS - anomaly <= -0.015\nsquared_error = 39.828\nsamples = 12\nvalue = 43.751", fillcolor="#f8ddca"] ;
404 -> 412 ;
413 [label="SSS - anomaly <= -0.054\nsquared_error = 31.26\nsamples = 10\nvalue = 45.386", fillcolor="#f8dbc6"] ;
412 -> 413 ;
414 [label="SSH - anomaly <= 0.008\nsquared_error = 18.96\nsamples = 7\nvalue = 42.701", fillcolor="#f8decc"] ;
413 -> 414 ;
415 [label="month of year <= 346.0\nsquared_error = 16.608\nsamples = 3\nvalue = 39.048", fillcolor="#f9e3d3"] ;
414 -> 415 ;
416 [label="SST - anomaly <= 0.117\nsquared_error = 18.449\nsamples = 2\nvalue = 40.515", fillcolor="#f9e1d0"] ;
415 -> 416 ;
417 [label="squared_error = 0.0\nsamples = 1\nvalue = 44.81", fillcolor="#f8dcc7"] ;
416 -> 417 ;
418 [label="squared_error = 0.0\nsamples = 1\nvalue = 36.22", fillcolor="#fae7d9"] ;
416 -> 418 ;
419 [label="squared_error = 0.0\nsamples = 1\nvalue = 36.112", fillcolor="#fae7da"] ;
415 -> 419 ;
420 [label="month of year <= 370.0\nsquared_error = 3.2\nsamples = 4\nvalue = 45.442", fillcolor="#f8dbc6"] ;
414 -> 420 ;
421 [label="SST - anomaly <= -0.091\nsquared_error = 0.008\nsamples = 2\nvalue = 47.218", fillcolor="#f7d8c2"] ;
420 -> 421 ;
422 [label="squared_error = 0.0\nsamples = 1\nvalue = 47.131", fillcolor="#f7d8c2"] ;
421 -> 422 ;
423 [label="squared_error = 0.0\nsamples = 1\nvalue = 47.306", fillcolor="#f7d8c2"] ;
421 -> 423 ;
424 [label="SST - anomaly <= 0.367\nsquared_error = 0.082\nsamples = 2\nvalue = 43.666", fillcolor="#f8ddca"] ;
420 -> 424 ;
425 [label="squared_error = 0.0\nsamples = 1\nvalue = 43.951", fillcolor="#f8ddc9"] ;
424 -> 425 ;
426 [label="squared_error = 0.0\nsamples = 1\nvalue = 43.38", fillcolor="#f8ddca"] ;
424 -> 426 ;
427 [label="SST - anomaly <= -0.28\nsquared_error = 3.898\nsamples = 3\nvalue = 51.651", fillcolor="#f6d2b9"] ;
413 -> 427 ;
428 [label="squared_error = 0.0\nsamples = 1\nvalue = 48.859", fillcolor="#f7d6bf"] ;
427 -> 428 ;
429 [label="month of year <= 298.0\nsquared_error = 0.0\nsamples = 2\nvalue = 53.047", fillcolor="#f5d1b6"] ;
427 -> 429 ;
430 [label="squared_error = 0.0\nsamples = 1\nvalue = 53.046", fillcolor="#f5d1b6"] ;
429 -> 430 ;
431 [label="squared_error = 0.0\nsamples = 1\nvalue = 53.047", fillcolor="#f5d1b6"] ;
429 -> 431 ;
432 [label="SSH - anomaly <= 0.021\nsquared_error = 2.424\nsamples = 2\nvalue = 35.573", fillcolor="#fae8db"] ;
412 -> 432 ;
433 [label="squared_error = 0.0\nsamples = 1\nvalue = 34.016", fillcolor="#fbeade"] ;
432 -> 433 ;
434 [label="squared_error = 0.0\nsamples = 1\nvalue = 37.13", fillcolor="#fae6d7"] ;
432 -> 434 ;
435 [label="month of year <= 526.0\nsquared_error = 96.023\nsamples = 15\nvalue = 54.604", fillcolor="#f5ceb3"] ;
403 -> 435 ;
436 [label="month of year <= 214.0\nsquared_error = 83.234\nsamples = 13\nvalue = 52.693", fillcolor="#f6d1b7"] ;
435 -> 436 ;
437 [label="SSH - anomaly <= 0.029\nsquared_error = 136.977\nsamples = 4\nvalue = 61.437", fillcolor="#f3c5a4"] ;
436 -> 437 ;
438 [label="SSS - anomaly <= 0.045\nsquared_error = 44.036\nsamples = 3\nvalue = 55.55", fillcolor="#f5cdb1"] ;
437 -> 438 ;
439 [label="SST - anomaly <= -0.374\nsquared_error = 14.647\nsamples = 2\nvalue = 59.69", fillcolor="#f4c8a8"] ;
438 -> 439 ;
440 [label="squared_error = 0.0\nsamples = 1\nvalue = 63.517", fillcolor="#f3c3a0"] ;
439 -> 440 ;
441 [label="squared_error = 0.0\nsamples = 1\nvalue = 55.862", fillcolor="#f5cdb0"] ;
439 -> 441 ;
442 [label="squared_error = 0.0\nsamples = 1\nvalue = 47.271", fillcolor="#f7d8c2"] ;
438 -> 442 ;
443 [label="squared_error = 0.0\nsamples = 1\nvalue = 79.096", fillcolor="#eeae7f"] ;
437 -> 443 ;
444 [label="SSH - anomaly <= 0.012\nsquared_error = 10.269\nsamples = 9\nvalue = 48.807", fillcolor="#f7d6bf"] ;
436 -> 444 ;
445 [label="SSS - anomaly <= 0.09\nsquared_error = 3.755\nsamples = 4\nvalue = 51.829", fillcolor="#f6d2b9"] ;
444 -> 445 ;
446 [label="squared_error = 0.0\nsamples = 1\nvalue = 48.554", fillcolor="#f7d7bf"] ;
445 -> 446 ;
447 [label="SST - anomaly <= 0.341\nsquared_error = 0.24\nsamples = 3\nvalue = 52.921", fillcolor="#f5d1b6"] ;
445 -> 447 ;
448 [label="SST - anomaly <= 0.159\nsquared_error = 0.029\nsamples = 2\nvalue = 52.588", fillcolor="#f6d1b7"] ;
447 -> 448 ;
449 [label="squared_error = 0.0\nsamples = 1\nvalue = 52.757", fillcolor="#f5d1b7"] ;
448 -> 449 ;
450 [label="squared_error = 0.0\nsamples = 1\nvalue = 52.419", fillcolor="#f6d1b7"] ;
448 -> 450 ;
451 [label="squared_error = 0.0\nsamples = 1\nvalue = 53.586", fillcolor="#f5d0b5"] ;
447 -> 451 ;
452 [label="SSH - anomaly <= 0.044\nsquared_error = 2.327\nsamples = 5\nvalue = 46.389", fillcolor="#f7d9c4"] ;
444 -> 452 ;
453 [label="SSH - anomaly <= 0.028\nsquared_error = 1.171\nsamples = 3\nvalue = 47.43", fillcolor="#f7d8c2"] ;
452 -> 453 ;
454 [label="SST - anomaly <= 0.265\nsquared_error = 0.125\nsamples = 2\nvalue = 46.692", fillcolor="#f7d9c3"] ;
453 -> 454 ;
455 [label="squared_error = 0.0\nsamples = 1\nvalue = 46.339", fillcolor="#f7dac4"] ;
454 -> 455 ;
456 [label="squared_error = 0.0\nsamples = 1\nvalue = 47.045", fillcolor="#f7d9c3"] ;
454 -> 456 ;
457 [label="squared_error = 0.0\nsamples = 1\nvalue = 48.905", fillcolor="#f7d6bf"] ;
453 -> 457 ;
458 [label="SSS - anomaly <= 0.191\nsquared_error = 0.0\nsamples = 2\nvalue = 44.828", fillcolor="#f8dcc7"] ;
452 -> 458 ;
459 [label="squared_error = 0.0\nsamples = 1\nvalue = 44.838", fillcolor="#f8dcc7"] ;
458 -> 459 ;
460 [label="squared_error = 0.0\nsamples = 1\nvalue = 44.818", fillcolor="#f8dcc7"] ;
458 -> 460 ;
461 [label="SST - anomaly <= 0.224\nsquared_error = 1.128\nsamples = 2\nvalue = 67.025", fillcolor="#f2be99"] ;
435 -> 461 ;
462 [label="squared_error = 0.0\nsamples = 1\nvalue = 65.963", fillcolor="#f2bf9b"] ;
461 -> 462 ;
463 [label="squared_error = 0.0\nsamples = 1\nvalue = 68.087", fillcolor="#f1bc96"] ;
461 -> 463 ;
464 [label="SSS - anomaly <= 0.165\nsquared_error = 289.477\nsamples = 29\nvalue = 60.684", fillcolor="#f3c6a6"] ;
402 -> 464 ;
465 [label="month of year <= 549.0\nsquared_error = 240.555\nsamples = 24\nvalue = 57.753", fillcolor="#f4caac"] ;
464 -> 465 ;
466 [label="SSH - anomaly <= -0.014\nsquared_error = 205.676\nsamples = 19\nvalue = 54.412", fillcolor="#f5cfb3"] ;
465 -> 466 ;
467 [label="SSS - anomaly <= 0.032\nsquared_error = 39.504\nsamples = 2\nvalue = 77.188", fillcolor="#efb083"] ;
466 -> 467 ;
468 [label="squared_error = 0.0\nsamples = 1\nvalue = 83.473", fillcolor="#eda876"] ;
467 -> 468 ;
469 [label="squared_error = 0.0\nsamples = 1\nvalue = 70.902", fillcolor="#f0b990"] ;
467 -> 469 ;
470 [label="SSH - anomaly <= -0.002\nsquared_error = 157.018\nsamples = 17\nvalue = 51.732", fillcolor="#f6d2b9"] ;
466 -> 470 ;
471 [label="SSS - anomaly <= 0.065\nsquared_error = 5.67\nsamples = 2\nvalue = 30.998", fillcolor="#fbeee4"] ;
470 -> 471 ;
472 [label="squared_error = 0.0\nsamples = 1\nvalue = 33.379", fillcolor="#fbebdf"] ;
471 -> 472 ;
473 [label="squared_error = 0.0\nsamples = 1\nvalue = 28.617", fillcolor="#fcf1e9"] ;
471 -> 473 ;
474 [label="month of year <= 123.0\nsquared_error = 112.234\nsamples = 15\nvalue = 54.497", fillcolor="#f5cfb3"] ;
470 -> 474 ;
475 [label="month of year <= 45.0\nsquared_error = 121.962\nsamples = 6\nvalue = 61.171", fillcolor="#f3c6a5"] ;
474 -> 475 ;
476 [label="month of year <= 33.0\nsquared_error = 27.017\nsamples = 3\nvalue = 51.884", fillcolor="#f6d2b8"] ;
475 -> 476 ;
477 [label="SSS - anomaly <= -0.407\nsquared_error = 8.141\nsamples = 2\nvalue = 48.598", fillcolor="#f7d6bf"] ;
476 -> 477 ;
478 [label="squared_error = 0.0\nsamples = 1\nvalue = 45.745", fillcolor="#f7dac5"] ;
477 -> 478 ;
479 [label="squared_error = 0.0\nsamples = 1\nvalue = 51.451", fillcolor="#f6d3b9"] ;
477 -> 479 ;
480 [label="squared_error = 0.0\nsamples = 1\nvalue = 58.455", fillcolor="#f4c9ab"] ;
476 -> 480 ;
481 [label="month of year <= 57.0\nsquared_error = 44.402\nsamples = 3\nvalue = 70.458", fillcolor="#f1b991"] ;
475 -> 481 ;
482 [label="squared_error = 0.0\nsamples = 1\nvalue = 78.63", fillcolor="#eeae80"] ;
481 -> 482 ;
483 [label="month of year <= 81.0\nsquared_error = 16.52\nsamples = 2\nvalue = 66.372", fillcolor="#f2bf9a"] ;
481 -> 483 ;
484 [label="squared_error = 0.0\nsamples = 1\nvalue = 62.308", fillcolor="#f3c4a3"] ;
483 -> 484 ;
485 [label="squared_error = 0.0\nsamples = 1\nvalue = 70.437", fillcolor="#f1b991"] ;
483 -> 485 ;
486 [label="SSS - anomaly <= 0.119\nsquared_error = 56.257\nsamples = 9\nvalue = 50.047", fillcolor="#f6d5bc"] ;
474 -> 486 ;
487 [label="SST - anomaly <= -0.244\nsquared_error = 5.807\nsamples = 6\nvalue = 44.987", fillcolor="#f8dbc7"] ;
486 -> 487 ;
488 [label="month of year <= 339.0\nsquared_error = 1.974\nsamples = 2\nvalue = 42.109", fillcolor="#f8dfcd"] ;
487 -> 488 ;
489 [label="squared_error = 0.0\nsamples = 1\nvalue = 40.704", fillcolor="#f9e1d0"] ;
488 -> 489 ;
490 [label="squared_error = 0.0\nsamples = 1\nvalue = 43.514", fillcolor="#f8ddca"] ;
488 -> 490 ;
491 [label="SSS - anomaly <= 0.039\nsquared_error = 1.511\nsamples = 4\nvalue = 46.426", fillcolor="#f7d9c4"] ;
487 -> 491 ;
492 [label="SST - anomaly <= 0.256\nsquared_error = 0.0\nsamples = 2\nvalue = 45.197", fillcolor="#f8dbc6"] ;
491 -> 492 ;
493 [label="squared_error = 0.0\nsamples = 1\nvalue = 45.202", fillcolor="#f8dbc6"] ;
492 -> 493 ;
494 [label="squared_error = 0.0\nsamples = 1\nvalue = 45.192", fillcolor="#f8dbc7"] ;
492 -> 494 ;
495 [label="month of year <= 261.0\nsquared_error = 0.001\nsamples = 2\nvalue = 47.655", fillcolor="#f7d8c1"] ;
491 -> 495 ;
496 [label="squared_error = 0.0\nsamples = 1\nvalue = 47.692", fillcolor="#f7d8c1"] ;
495 -> 496 ;
497 [label="squared_error = 0.0\nsamples = 1\nvalue = 47.618", fillcolor="#f7d8c1"] ;
495 -> 497 ;
498 [label="SSS - anomaly <= 0.126\nsquared_error = 3.492\nsamples = 3\nvalue = 60.169", fillcolor="#f3c7a7"] ;
486 -> 498 ;
499 [label="squared_error = 0.0\nsamples = 1\nvalue = 57.824", fillcolor="#f4caac"] ;
498 -> 499 ;
500 [label="SSH - anomaly <= 0.043\nsquared_error = 1.116\nsamples = 2\nvalue = 61.341", fillcolor="#f3c5a5"] ;
498 -> 500 ;
501 [label="squared_error = 0.0\nsamples = 1\nvalue = 60.285", fillcolor="#f3c7a7"] ;
500 -> 501 ;
502 [label="squared_error = 0.0\nsamples = 1\nvalue = 62.397", fillcolor="#f3c4a2"] ;
500 -> 502 ;
503 [label="SST - anomaly <= 0.946\nsquared_error = 169.456\nsamples = 5\nvalue = 70.45", fillcolor="#f1b991"] ;
465 -> 503 ;
504 [label="SSH - anomaly <= 0.015\nsquared_error = 63.941\nsamples = 4\nvalue = 75.889", fillcolor="#efb286"] ;
503 -> 504 ;
505 [label="squared_error = 0.0\nsamples = 1\nvalue = 64.508", fillcolor="#f2c19e"] ;
504 -> 505 ;
506 [label="SSH - anomaly <= 0.052\nsquared_error = 27.695\nsamples = 3\nvalue = 79.682", fillcolor="#eead7e"] ;
504 -> 506 ;
507 [label="squared_error = 0.0\nsamples = 1\nvalue = 86.951", fillcolor="#eca36f"] ;
506 -> 507 ;
508 [label="SSH - anomaly <= 0.092\nsquared_error = 1.919\nsamples = 2\nvalue = 76.048", fillcolor="#efb286"] ;
506 -> 508 ;
509 [label="squared_error = 0.0\nsamples = 1\nvalue = 74.662", fillcolor="#efb489"] ;
508 -> 509 ;
510 [label="squared_error = 0.0\nsamples = 1\nvalue = 77.433", fillcolor="#efb083"] ;
508 -> 510 ;
511 [label="squared_error = 0.0\nsamples = 1\nvalue = 48.697", fillcolor="#f7d6bf"] ;
503 -> 511 ;
512 [label="SSS - anomaly <= 0.193\nsquared_error = 285.203\nsamples = 5\nvalue = 74.751", fillcolor="#efb488"] ;
464 -> 512 ;
513 [label="squared_error = 0.0\nsamples = 1\nvalue = 106.647", fillcolor="#e78945"] ;
512 -> 513 ;
514 [label="SST - anomaly <= 0.721\nsquared_error = 38.561\nsamples = 4\nvalue = 66.776", fillcolor="#f2be99"] ;
512 -> 514 ;
515 [label="SSS - anomaly <= 0.322\nsquared_error = 4.256\nsamples = 3\nvalue = 70.21", fillcolor="#f1ba92"] ;
514 -> 515 ;
516 [label="squared_error = 0.0\nsamples = 1\nvalue = 73.048", fillcolor="#f0b68c"] ;
515 -> 516 ;
517 [label="SST - anomaly <= -0.152\nsquared_error = 0.343\nsamples = 2\nvalue = 68.791", fillcolor="#f1bb95"] ;
515 -> 517 ;
518 [label="squared_error = 0.0\nsamples = 1\nvalue = 68.205", fillcolor="#f1bc96"] ;
517 -> 518 ;
519 [label="squared_error = 0.0\nsamples = 1\nvalue = 69.376", fillcolor="#f1bb94"] ;
517 -> 519 ;
520 [label="squared_error = 0.0\nsamples = 1\nvalue = 56.475", fillcolor="#f4ccaf"] ;
514 -> 520 ;
521 [label="SST - anomaly <= -0.23\nsquared_error = 69.865\nsamples = 46\nvalue = 36.686", fillcolor="#fae6d8"] ;
347 -> 521 ;
522 [label="SSH - anomaly <= -0.124\nsquared_error = 43.983\nsamples = 16\nvalue = 42.911", fillcolor="#f8decb"] ;
521 -> 522 ;
523 [label="squared_error = 0.0\nsamples = 1\nvalue = 24.998", fillcolor="#fdf6f1"] ;
522 -> 523 ;
524 [label="SSS - anomaly <= 0.26\nsquared_error = 24.097\nsamples = 15\nvalue = 44.106", fillcolor="#f8dcc9"] ;
522 -> 524 ;
525 [label="SST - anomaly <= -1.007\nsquared_error = 12.379\nsamples = 14\nvalue = 43.159", fillcolor="#f8decb"] ;
524 -> 525 ;
526 [label="squared_error = 0.0\nsamples = 1\nvalue = 35.849", fillcolor="#fae8da"] ;
525 -> 526 ;
527 [label="SSH - anomaly <= -0.001\nsquared_error = 8.904\nsamples = 13\nvalue = 43.721", fillcolor="#f8ddca"] ;
525 -> 527 ;
528 [label="SSH - anomaly <= -0.049\nsquared_error = 8.541\nsamples = 9\nvalue = 42.656", fillcolor="#f8decc"] ;
527 -> 528 ;
529 [label="SST - anomaly <= -0.353\nsquared_error = 2.01\nsamples = 4\nvalue = 45.523", fillcolor="#f7dbc6"] ;
528 -> 529 ;
530 [label="SSS - anomaly <= 0.131\nsquared_error = 0.205\nsamples = 3\nvalue = 46.309", fillcolor="#f7dac4"] ;
529 -> 530 ;
531 [label="SSS - anomaly <= -0.072\nsquared_error = 0.175\nsamples = 2\nvalue = 46.099", fillcolor="#f7dac5"] ;
530 -> 531 ;
532 [label="squared_error = 0.0\nsamples = 1\nvalue = 46.518", fillcolor="#f7d9c4"] ;
531 -> 532 ;
533 [label="squared_error = 0.0\nsamples = 1\nvalue = 45.681", fillcolor="#f7dac5"] ;
531 -> 533 ;
534 [label="squared_error = 0.0\nsamples = 1\nvalue = 46.729", fillcolor="#f7d9c3"] ;
530 -> 534 ;
535 [label="squared_error = 0.0\nsamples = 1\nvalue = 43.163", fillcolor="#f8decb"] ;
529 -> 535 ;
536 [label="month of year <= 353.0\nsquared_error = 1.933\nsamples = 5\nvalue = 40.363", fillcolor="#f9e2d1"] ;
528 -> 536 ;
537 [label="SSS - anomaly <= -0.338\nsquared_error = 0.243\nsamples = 3\nvalue = 39.303", fillcolor="#f9e3d3"] ;
536 -> 537 ;
538 [label="squared_error = 0.0\nsamples = 1\nvalue = 38.609", fillcolor="#f9e4d4"] ;
537 -> 538 ;
539 [label="month of year <= 203.0\nsquared_error = 0.003\nsamples = 2\nvalue = 39.651", fillcolor="#f9e2d2"] ;
537 -> 539 ;
540 [label="squared_error = 0.0\nsamples = 1\nvalue = 39.709", fillcolor="#f9e2d2"] ;
539 -> 540 ;
541 [label="squared_error = 0.0\nsamples = 1\nvalue = 39.592", fillcolor="#f9e3d2"] ;
539 -> 541 ;
542 [label="month of year <= 473.0\nsquared_error = 0.259\nsamples = 2\nvalue = 41.952", fillcolor="#f8dfcd"] ;
536 -> 542 ;
543 [label="squared_error = 0.0\nsamples = 1\nvalue = 41.443", fillcolor="#f9e0ce"] ;
542 -> 543 ;
544 [label="squared_error = 0.0\nsamples = 1\nvalue = 42.461", fillcolor="#f8dfcc"] ;
542 -> 544 ;
545 [label="SSH - anomaly <= 0.04\nsquared_error = 1.424\nsamples = 4\nvalue = 46.118", fillcolor="#f7dac5"] ;
527 -> 545 ;
546 [label="SSH - anomaly <= 0.019\nsquared_error = 0.06\nsamples = 2\nvalue = 44.952", fillcolor="#f8dbc7"] ;
545 -> 546 ;
547 [label="squared_error = 0.0\nsamples = 1\nvalue = 44.708", fillcolor="#f8dcc8"] ;
546 -> 547 ;
548 [label="squared_error = 0.0\nsamples = 1\nvalue = 45.197", fillcolor="#f8dbc6"] ;
546 -> 548 ;
549 [label="SST - anomaly <= -0.408\nsquared_error = 0.07\nsamples = 2\nvalue = 47.284", fillcolor="#f7d8c2"] ;
545 -> 549 ;
550 [label="squared_error = 0.0\nsamples = 1\nvalue = 47.549", fillcolor="#f7d8c2"] ;
549 -> 550 ;
551 [label="squared_error = 0.0\nsamples = 1\nvalue = 47.019", fillcolor="#f7d9c3"] ;
549 -> 551 ;
552 [label="squared_error = 0.0\nsamples = 1\nvalue = 57.357", fillcolor="#f4cbad"] ;
524 -> 552 ;
553 [label="SSH - anomaly <= 0.015\nsquared_error = 51.972\nsamples = 30\nvalue = 33.365", fillcolor="#fbebdf"] ;
521 -> 553 ;
554 [label="SST - anomaly <= 0.65\nsquared_error = 36.546\nsamples = 16\nvalue = 29.856", fillcolor="#fcf0e7"] ;
553 -> 554 ;
555 [label="month of year <= 455.0\nsquared_error = 25.96\nsamples = 13\nvalue = 31.654", fillcolor="#fbede3"] ;
554 -> 555 ;
556 [label="SST - anomaly <= -0.122\nsquared_error = 4.138\nsamples = 9\nvalue = 30.333", fillcolor="#fcefe6"] ;
555 -> 556 ;
557 [label="SST - anomaly <= -0.201\nsquared_error = 5.609\nsamples = 2\nvalue = 27.496", fillcolor="#fcf3ec"] ;
556 -> 557 ;
558 [label="squared_error = 0.0\nsamples = 1\nvalue = 29.864", fillcolor="#fcf0e7"] ;
557 -> 558 ;
559 [label="squared_error = 0.0\nsamples = 1\nvalue = 25.128", fillcolor="#fdf6f1"] ;
557 -> 559 ;
560 [label="SSS - anomaly <= -0.095\nsquared_error = 0.762\nsamples = 7\nvalue = 31.143", fillcolor="#fbeee4"] ;
556 -> 560 ;
561 [label="SSH - anomaly <= -0.019\nsquared_error = 0.207\nsamples = 3\nvalue = 30.211", fillcolor="#fcefe6"] ;
560 -> 561 ;
562 [label="squared_error = 0.0\nsamples = 1\nvalue = 29.574", fillcolor="#fcf0e7"] ;
561 -> 562 ;
563 [label="month of year <= 197.0\nsquared_error = 0.006\nsamples = 2\nvalue = 30.53", fillcolor="#fcefe5"] ;
561 -> 563 ;
564 [label="squared_error = 0.0\nsamples = 1\nvalue = 30.451", fillcolor="#fcefe5"] ;
563 -> 564 ;
565 [label="squared_error = 0.0\nsamples = 1\nvalue = 30.609", fillcolor="#fcefe5"] ;
563 -> 565 ;
566 [label="SST - anomaly <= 0.048\nsquared_error = 0.039\nsamples = 4\nvalue = 31.842", fillcolor="#fbede3"] ;
560 -> 566 ;
567 [label="squared_error = 0.0\nsamples = 1\nvalue = 31.547", fillcolor="#fbede3"] ;
566 -> 567 ;
568 [label="month of year <= 269.0\nsquared_error = 0.014\nsamples = 3\nvalue = 31.94", fillcolor="#fbede2"] ;
566 -> 568 ;
569 [label="squared_error = 0.0\nsamples = 1\nvalue = 32.089", fillcolor="#fbede2"] ;
568 -> 569 ;
570 [label="SSS - anomaly <= -0.003\nsquared_error = 0.004\nsamples = 2\nvalue = 31.866", fillcolor="#fbede2"] ;
568 -> 570 ;
571 [label="squared_error = 0.0\nsamples = 1\nvalue = 31.799", fillcolor="#fbede3"] ;
570 -> 571 ;
572 [label="squared_error = 0.0\nsamples = 1\nvalue = 31.933", fillcolor="#fbede2"] ;
570 -> 572 ;
573 [label="SST - anomaly <= 0.034\nsquared_error = 62.291\nsamples = 4\nvalue = 34.627", fillcolor="#fae9dd"] ;
555 -> 573 ;
574 [label="squared_error = 0.0\nsamples = 1\nvalue = 47.539", fillcolor="#f7d8c2"] ;
573 -> 574 ;
575 [label="month of year <= 551.0\nsquared_error = 8.965\nsamples = 3\nvalue = 30.324", fillcolor="#fcefe6"] ;
573 -> 575 ;
576 [label="squared_error = 0.0\nsamples = 1\nvalue = 34.104", fillcolor="#fbeade"] ;
575 -> 576 ;
577 [label="month of year <= 641.0\nsquared_error = 2.732\nsamples = 2\nvalue = 28.434", fillcolor="#fcf1ea"] ;
575 -> 577 ;
578 [label="squared_error = 0.0\nsamples = 1\nvalue = 30.086", fillcolor="#fcefe6"] ;
577 -> 578 ;
579 [label="squared_error = 0.0\nsamples = 1\nvalue = 26.781", fillcolor="#fdf4ed"] ;
577 -> 579 ;
580 [label="SSS - anomaly <= 0.37\nsquared_error = 7.701\nsamples = 3\nvalue = 22.065", fillcolor="#fefaf7"] ;
554 -> 580 ;
581 [label="SSS - anomaly <= 0.14\nsquared_error = 1.398\nsamples = 2\nvalue = 20.225", fillcolor="#fefcfb"] ;
580 -> 581 ;
582 [label="squared_error = 0.0\nsamples = 1\nvalue = 21.407", fillcolor="#fefbf8"] ;
581 -> 582 ;
583 [label="squared_error = 0.0\nsamples = 1\nvalue = 19.043", fillcolor="#fffefd"] ;
581 -> 583 ;
584 [label="squared_error = 0.0\nsamples = 1\nvalue = 25.744", fillcolor="#fdf5ef"] ;
580 -> 584 ;
585 [label="SSS - anomaly <= 0.199\nsquared_error = 39.443\nsamples = 14\nvalue = 37.376", fillcolor="#fae5d7"] ;
553 -> 585 ;
586 [label="SSH - anomaly <= 0.092\nsquared_error = 29.556\nsamples = 11\nvalue = 35.575", fillcolor="#fae8db"] ;
585 -> 586 ;
587 [label="SSS - anomaly <= 0.082\nsquared_error = 15.287\nsamples = 10\nvalue = 34.324", fillcolor="#fbeadd"] ;
586 -> 587 ;
588 [label="SSS - anomaly <= 0.042\nsquared_error = 7.456\nsamples = 7\nvalue = 36.29", fillcolor="#fae7d9"] ;
587 -> 588 ;
589 [label="SSH - anomaly <= 0.037\nsquared_error = 5.068\nsamples = 5\nvalue = 35.058", fillcolor="#fae9dc"] ;
588 -> 589 ;
590 [label="SSH - anomaly <= 0.027\nsquared_error = 0.134\nsamples = 2\nvalue = 36.731", fillcolor="#fae6d8"] ;
589 -> 590 ;
591 [label="squared_error = 0.0\nsamples = 1\nvalue = 36.365", fillcolor="#fae7d9"] ;
590 -> 591 ;
592 [label="squared_error = 0.0\nsamples = 1\nvalue = 37.097", fillcolor="#fae6d8"] ;
590 -> 592 ;
593 [label="SST - anomaly <= 0.049\nsquared_error = 5.249\nsamples = 3\nvalue = 33.943", fillcolor="#fbeade"] ;
589 -> 593 ;
594 [label="squared_error = 0.0\nsamples = 1\nvalue = 37.075", fillcolor="#fae6d8"] ;
593 -> 594 ;
595 [label="month of year <= 317.0\nsquared_error = 0.516\nsamples = 2\nvalue = 32.377", fillcolor="#fbece1"] ;
593 -> 595 ;
596 [label="squared_error = 0.0\nsamples = 1\nvalue = 31.659", fillcolor="#fbede3"] ;
595 -> 596 ;
597 [label="squared_error = 0.0\nsamples = 1\nvalue = 33.095", fillcolor="#fbebe0"] ;
595 -> 597 ;
598 [label="SST - anomaly <= 0.564\nsquared_error = 0.147\nsamples = 2\nvalue = 39.37", fillcolor="#f9e3d3"] ;
588 -> 598 ;
599 [label="squared_error = 0.0\nsamples = 1\nvalue = 38.986", fillcolor="#f9e3d4"] ;
598 -> 599 ;
600 [label="squared_error = 0.0\nsamples = 1\nvalue = 39.754", fillcolor="#f9e2d2"] ;
598 -> 600 ;
601 [label="SST - anomaly <= 0.849\nsquared_error = 3.49\nsamples = 3\nvalue = 29.736", fillcolor="#fcf0e7"] ;
587 -> 601 ;
602 [label="squared_error = 0.0\nsamples = 1\nvalue = 27.304", fillcolor="#fdf3ec"] ;
601 -> 602 ;
603 [label="SSH - anomaly <= 0.079\nsquared_error = 0.797\nsamples = 2\nvalue = 30.952", fillcolor="#fceee4"] ;
601 -> 603 ;
604 [label="squared_error = 0.0\nsamples = 1\nvalue = 31.845", fillcolor="#fbede3"] ;
603 -> 604 ;
605 [label="squared_error = 0.0\nsamples = 1\nvalue = 30.059", fillcolor="#fcefe6"] ;
603 -> 605 ;
606 [label="squared_error = 0.0\nsamples = 1\nvalue = 48.088", fillcolor="#f7d7c0"] ;
586 -> 606 ;
607 [label="SSH - anomaly <= 0.07\nsquared_error = 20.218\nsamples = 3\nvalue = 43.978", fillcolor="#f8ddc9"] ;
585 -> 607 ;
608 [label="SSS - anomaly <= 0.317\nsquared_error = 0.34\nsamples = 2\nvalue = 40.817", fillcolor="#f9e1d0"] ;
607 -> 608 ;
609 [label="squared_error = 0.0\nsamples = 1\nvalue = 41.4", fillcolor="#f9e0ce"] ;
608 -> 609 ;
610 [label="squared_error = 0.0\nsamples = 1\nvalue = 40.234", fillcolor="#f9e2d1"] ;
608 -> 610 ;
611 [label="squared_error = 0.0\nsamples = 1\nvalue = 50.301", fillcolor="#f6d4bc"] ;
607 -> 611 ;
612 [label="SSS - climatology <= 34.822\nsquared_error = 81.274\nsamples = 201\nvalue = 35.058", fillcolor="#fae9dc"] ;
0 -> 612 [labeldistance=2.5, labelangle=-45, headlabel="False"] ;
613 [label="month of year <= 382.0\nsquared_error = 57.97\nsamples = 43\nvalue = 45.398", fillcolor="#f8dbc6"] ;
612 -> 613 ;
614 [label="SSS - anomaly <= -0.017\nsquared_error = 36.232\nsamples = 24\nvalue = 41.427", fillcolor="#f9e0ce"] ;
613 -> 614 ;
615 [label="SSH - anomaly <= -0.008\nsquared_error = 24.024\nsamples = 13\nvalue = 38.208", fillcolor="#fae4d5"] ;
614 -> 615 ;
616 [label="SST - anomaly <= -0.237\nsquared_error = 15.089\nsamples = 7\nvalue = 35.07", fillcolor="#fae9dc"] ;
615 -> 616 ;
617 [label="SSS - anomaly <= -0.283\nsquared_error = 0.022\nsamples = 2\nvalue = 40.153", fillcolor="#f9e2d1"] ;
616 -> 617 ;
618 [label="squared_error = 0.0\nsamples = 1\nvalue = 40.005", fillcolor="#f9e2d1"] ;
617 -> 618 ;
619 [label="squared_error = 0.0\nsamples = 1\nvalue = 40.302", fillcolor="#f9e2d1"] ;
617 -> 619 ;
620 [label="month of year <= 34.0\nsquared_error = 6.642\nsamples = 5\nvalue = 33.036", fillcolor="#fbebe0"] ;
616 -> 620 ;
621 [label="squared_error = 0.0\nsamples = 1\nvalue = 28.908", fillcolor="#fcf1e9"] ;
620 -> 621 ;
622 [label="month of year <= 88.0\nsquared_error = 2.978\nsamples = 4\nvalue = 34.068", fillcolor="#fbeade"] ;
620 -> 622 ;
623 [label="squared_error = 0.0\nsamples = 1\nvalue = 36.539", fillcolor="#fae7d9"] ;
622 -> 623 ;
624 [label="month of year <= 250.0\nsquared_error = 1.257\nsamples = 3\nvalue = 33.244", fillcolor="#fbebe0"] ;
622 -> 624 ;
625 [label="SSH - anomaly <= -0.071\nsquared_error = 0.045\nsamples = 2\nvalue = 34.027", fillcolor="#fbeade"] ;
624 -> 625 ;
626 [label="squared_error = 0.0\nsamples = 1\nvalue = 34.241", fillcolor="#fbeade"] ;
625 -> 626 ;
627 [label="squared_error = 0.0\nsamples = 1\nvalue = 33.814", fillcolor="#fbeade"] ;
625 -> 627 ;
628 [label="squared_error = 0.0\nsamples = 1\nvalue = 31.678", fillcolor="#fbede3"] ;
624 -> 628 ;
629 [label="SST - anomaly <= 0.017\nsquared_error = 9.557\nsamples = 6\nvalue = 41.869", fillcolor="#f8dfcd"] ;
615 -> 629 ;
630 [label="month of year <= 88.0\nsquared_error = 3.017\nsamples = 3\nvalue = 39.084", fillcolor="#f9e3d3"] ;
629 -> 630 ;
631 [label="squared_error = 0.0\nsamples = 1\nvalue = 41.377", fillcolor="#f9e0cf"] ;
630 -> 631 ;
632 [label="SSH - anomaly <= 0.019\nsquared_error = 0.582\nsamples = 2\nvalue = 37.938", fillcolor="#fae5d6"] ;
630 -> 632 ;
633 [label="squared_error = 0.0\nsamples = 1\nvalue = 37.175", fillcolor="#fae6d7"] ;
632 -> 633 ;
634 [label="squared_error = 0.0\nsamples = 1\nvalue = 38.7", fillcolor="#f9e4d4"] ;
632 -> 634 ;
635 [label="SSS - anomaly <= -0.113\nsquared_error = 0.589\nsamples = 3\nvalue = 44.653", fillcolor="#f8dcc8"] ;
629 -> 635 ;
636 [label="SSH - anomaly <= 0.025\nsquared_error = 0.084\nsamples = 2\nvalue = 45.169", fillcolor="#f8dbc7"] ;
635 -> 636 ;
637 [label="squared_error = 0.0\nsamples = 1\nvalue = 44.878", fillcolor="#f8dbc7"] ;
636 -> 637 ;
638 [label="squared_error = 0.0\nsamples = 1\nvalue = 45.46", fillcolor="#f8dbc6"] ;
636 -> 638 ;
639 [label="squared_error = 0.0\nsamples = 1\nvalue = 43.621", fillcolor="#f8ddca"] ;
635 -> 639 ;
640 [label="SSH - anomaly <= 0.008\nsquared_error = 23.94\nsamples = 11\nvalue = 45.231", fillcolor="#f8dbc6"] ;
614 -> 640 ;
641 [label="month of year <= 250.0\nsquared_error = 8.661\nsamples = 8\nvalue = 42.906", fillcolor="#f8decb"] ;
640 -> 641 ;
642 [label="SSH - anomaly <= -0.068\nsquared_error = 4.152\nsamples = 4\nvalue = 40.714", fillcolor="#f9e1d0"] ;
641 -> 642 ;
643 [label="squared_error = 0.0\nsamples = 1\nvalue = 37.315", fillcolor="#fae6d7"] ;
642 -> 643 ;
644 [label="month of year <= 172.0\nsquared_error = 0.401\nsamples = 3\nvalue = 41.847", fillcolor="#f9e0ce"] ;
642 -> 644 ;
645 [label="SST - anomaly <= 0.132\nsquared_error = 0.052\nsamples = 2\nvalue = 42.275", fillcolor="#f8dfcd"] ;
644 -> 645 ;
646 [label="squared_error = 0.0\nsamples = 1\nvalue = 42.047", fillcolor="#f8dfcd"] ;
645 -> 646 ;
647 [label="squared_error = 0.0\nsamples = 1\nvalue = 42.504", fillcolor="#f8dfcc"] ;
645 -> 647 ;
648 [label="squared_error = 0.0\nsamples = 1\nvalue = 40.991", fillcolor="#f9e1cf"] ;
644 -> 648 ;
649 [label="SSS - anomaly <= 0.091\nsquared_error = 3.565\nsamples = 4\nvalue = 45.097", fillcolor="#f8dbc7"] ;
641 -> 649 ;
650 [label="SSS - anomaly <= 0.048\nsquared_error = 0.355\nsamples = 2\nvalue = 43.257", fillcolor="#f8decb"] ;
649 -> 650 ;
651 [label="squared_error = 0.0\nsamples = 1\nvalue = 42.661", fillcolor="#f8decc"] ;
650 -> 651 ;
652 [label="squared_error = 0.0\nsamples = 1\nvalue = 43.853", fillcolor="#f8ddc9"] ;
650 -> 652 ;
653 [label="SST - anomaly <= 0.033\nsquared_error = 0.003\nsamples = 2\nvalue = 46.937", fillcolor="#f7d9c3"] ;
649 -> 653 ;
654 [label="squared_error = 0.0\nsamples = 1\nvalue = 46.994", fillcolor="#f7d9c3"] ;
653 -> 654 ;
655 [label="squared_error = 0.0\nsamples = 1\nvalue = 46.881", fillcolor="#f7d9c3"] ;
653 -> 655 ;
656 [label="month of year <= 238.0\nsquared_error = 11.814\nsamples = 3\nvalue = 51.432", fillcolor="#f6d3b9"] ;
640 -> 656 ;
657 [label="month of year <= 172.0\nsquared_error = 0.598\nsamples = 2\nvalue = 53.821", fillcolor="#f5d0b4"] ;
656 -> 657 ;
658 [label="squared_error = 0.0\nsamples = 1\nvalue = 54.594", fillcolor="#f5ceb3"] ;
657 -> 658 ;
659 [label="squared_error = 0.0\nsamples = 1\nvalue = 53.048", fillcolor="#f5d1b6"] ;
657 -> 659 ;
660 [label="squared_error = 0.0\nsamples = 1\nvalue = 46.654", fillcolor="#f7d9c3"] ;
656 -> 660 ;
661 [label="month of year <= 664.0\nsquared_error = 40.351\nsamples = 19\nvalue = 50.414", fillcolor="#f6d4bc"] ;
613 -> 661 ;
662 [label="SSH - anomaly <= 0.005\nsquared_error = 29.882\nsamples = 17\nvalue = 51.679", fillcolor="#f6d2b9"] ;
661 -> 662 ;
663 [label="SST - anomaly <= 0.016\nsquared_error = 18.745\nsamples = 6\nvalue = 46.207", fillcolor="#f7dac4"] ;
662 -> 663 ;
664 [label="SST - anomaly <= -0.163\nsquared_error = 2.145\nsamples = 4\nvalue = 48.352", fillcolor="#f7d7c0"] ;
663 -> 664 ;
665 [label="squared_error = 0.0\nsamples = 1\nvalue = 50.446", fillcolor="#f6d4bb"] ;
664 -> 665 ;
666 [label="SST - anomaly <= -0.003\nsquared_error = 0.911\nsamples = 3\nvalue = 47.654", fillcolor="#f7d8c1"] ;
664 -> 666 ;
667 [label="SSS - anomaly <= 0.051\nsquared_error = 0.01\nsamples = 2\nvalue = 48.326", fillcolor="#f7d7c0"] ;
666 -> 667 ;
668 [label="squared_error = 0.0\nsamples = 1\nvalue = 48.226", fillcolor="#f7d7c0"] ;
667 -> 668 ;
669 [label="squared_error = 0.0\nsamples = 1\nvalue = 48.426", fillcolor="#f7d7c0"] ;
667 -> 669 ;
670 [label="squared_error = 0.0\nsamples = 1\nvalue = 46.309", fillcolor="#f7dac4"] ;
666 -> 670 ;
671 [label="SST - anomaly <= 0.39\nsquared_error = 24.339\nsamples = 2\nvalue = 41.917", fillcolor="#f8dfcd"] ;
663 -> 671 ;
672 [label="squared_error = 0.0\nsamples = 1\nvalue = 36.983", fillcolor="#fae6d8"] ;
671 -> 672 ;
673 [label="squared_error = 0.0\nsamples = 1\nvalue = 46.85", fillcolor="#f7d9c3"] ;
671 -> 673 ;
674 [label="SSS - anomaly <= 0.109\nsquared_error = 10.712\nsamples = 11\nvalue = 54.664", fillcolor="#f5ceb3"] ;
662 -> 674 ;
675 [label="SSS - anomaly <= -0.054\nsquared_error = 3.29\nsamples = 5\nvalue = 52.032", fillcolor="#f6d2b8"] ;
674 -> 675 ;
676 [label="SST - anomaly <= 0.309\nsquared_error = 2.384\nsamples = 2\nvalue = 50.733", fillcolor="#f6d4bb"] ;
675 -> 676 ;
677 [label="squared_error = 0.0\nsamples = 1\nvalue = 49.19", fillcolor="#f6d6be"] ;
676 -> 677 ;
678 [label="squared_error = 0.0\nsamples = 1\nvalue = 52.277", fillcolor="#f6d2b8"] ;
676 -> 678 ;
679 [label="SSS - anomaly <= 0.051\nsquared_error = 2.023\nsamples = 3\nvalue = 52.897", fillcolor="#f5d1b6"] ;
675 -> 679 ;
680 [label="SST - anomaly <= 0.115\nsquared_error = 0.0\nsamples = 2\nvalue = 53.903", fillcolor="#f5cfb4"] ;
679 -> 680 ;
681 [label="squared_error = 0.0\nsamples = 1\nvalue = 53.906", fillcolor="#f5cfb4"] ;
680 -> 681 ;
682 [label="squared_error = 0.0\nsamples = 1\nvalue = 53.899", fillcolor="#f5cfb4"] ;
680 -> 682 ;
683 [label="squared_error = 0.0\nsamples = 1\nvalue = 50.886", fillcolor="#f6d3bb"] ;
679 -> 683 ;
684 [label="month of year <= 628.0\nsquared_error = 6.312\nsamples = 6\nvalue = 56.857", fillcolor="#f4cbae"] ;
674 -> 684 ;
685 [label="SSH - anomaly <= 0.053\nsquared_error = 2.523\nsamples = 4\nvalue = 58.285", fillcolor="#f4caab"] ;
684 -> 685 ;
686 [label="SSS - anomaly <= 0.254\nsquared_error = 0.955\nsamples = 3\nvalue = 57.509", fillcolor="#f4cbad"] ;
685 -> 686 ;
687 [label="squared_error = 0.0\nsamples = 1\nvalue = 56.135", fillcolor="#f5ccb0"] ;
686 -> 687 ;
688 [label="SSH - anomaly <= 0.028\nsquared_error = 0.015\nsamples = 2\nvalue = 58.196", fillcolor="#f4caab"] ;
686 -> 688 ;
689 [label="squared_error = 0.0\nsamples = 1\nvalue = 58.319", fillcolor="#f4c9ab"] ;
688 -> 689 ;
690 [label="squared_error = 0.0\nsamples = 1\nvalue = 58.074", fillcolor="#f4caab"] ;
688 -> 690 ;
691 [label="squared_error = 0.0\nsamples = 1\nvalue = 60.614", fillcolor="#f3c6a6"] ;
685 -> 691 ;
692 [label="SST - anomaly <= 0.113\nsquared_error = 1.657\nsamples = 2\nvalue = 54.002", fillcolor="#f5cfb4"] ;
684 -> 692 ;
693 [label="squared_error = 0.0\nsamples = 1\nvalue = 52.715", fillcolor="#f6d1b7"] ;
692 -> 693 ;
694 [label="squared_error = 0.0\nsamples = 1\nvalue = 55.289", fillcolor="#f5ceb1"] ;
692 -> 694 ;
695 [label="SSS - anomaly <= 0.218\nsquared_error = 0.038\nsamples = 2\nvalue = 39.657", fillcolor="#f9e2d2"] ;
661 -> 695 ;
696 [label="squared_error = 0.0\nsamples = 1\nvalue = 39.463", fillcolor="#f9e3d3"] ;
695 -> 696 ;
697 [label="squared_error = 0.0\nsamples = 1\nvalue = 39.852", fillcolor="#f9e2d2"] ;
695 -> 697 ;
698 [label="SSH - anomaly <= 0.004\nsquared_error = 50.602\nsamples = 158\nvalue = 32.244", fillcolor="#fbece2"] ;
612 -> 698 ;
699 [label="SSS - climatology <= 34.94\nsquared_error = 37.153\nsamples = 90\nvalue = 30.02", fillcolor="#fcefe6"] ;
698 -> 699 ;
700 [label="month of year <= 476.0\nsquared_error = 37.735\nsamples = 67\nvalue = 31.162", fillcolor="#fbeee4"] ;
699 -> 700 ;
701 [label="SST - anomaly <= -0.139\nsquared_error = 22.821\nsamples = 55\nvalue = 29.806", fillcolor="#fcf0e7"] ;
700 -> 701 ;
702 [label="SST - anomaly <= -0.513\nsquared_error = 27.69\nsamples = 25\nvalue = 31.552", fillcolor="#fbede3"] ;
701 -> 702 ;
703 [label="SSS - anomaly <= 0.159\nsquared_error = 14.01\nsamples = 8\nvalue = 27.201", fillcolor="#fdf3ec"] ;
702 -> 703 ;
704 [label="SST - anomaly <= -0.667\nsquared_error = 6.157\nsamples = 6\nvalue = 25.435", fillcolor="#fdf5f0"] ;
703 -> 704 ;
705 [label="squared_error = 0.0\nsamples = 1\nvalue = 20.81", fillcolor="#fefcfa"] ;
704 -> 705 ;
706 [label="SSS - anomaly <= -0.125\nsquared_error = 2.255\nsamples = 5\nvalue = 26.36", fillcolor="#fdf4ee"] ;
704 -> 706 ;
707 [label="SSS - climatology <= 34.856\nsquared_error = 0.309\nsamples = 2\nvalue = 28.027", fillcolor="#fcf2eb"] ;
706 -> 707 ;
708 [label="squared_error = 0.0\nsamples = 1\nvalue = 28.583", fillcolor="#fcf1e9"] ;
707 -> 708 ;
709 [label="squared_error = 0.0\nsamples = 1\nvalue = 27.471", fillcolor="#fcf3ec"] ;
707 -> 709 ;
710 [label="SST - anomaly <= -0.573\nsquared_error = 0.466\nsamples = 3\nvalue = 25.249", fillcolor="#fdf6f0"] ;
706 -> 710 ;
711 [label="month of year <= 253.5\nsquared_error = 0.072\nsamples = 2\nvalue = 25.706", fillcolor="#fdf5ef"] ;
710 -> 711 ;
712 [label="squared_error = 0.0\nsamples = 1\nvalue = 25.438", fillcolor="#fdf5f0"] ;
711 -> 712 ;
713 [label="squared_error = 0.0\nsamples = 1\nvalue = 25.974", fillcolor="#fdf5ef"] ;
711 -> 713 ;
714 [label="squared_error = 0.0\nsamples = 1\nvalue = 24.335", fillcolor="#fdf7f2"] ;
710 -> 714 ;
715 [label="SST - anomaly <= -0.653\nsquared_error = 0.164\nsamples = 2\nvalue = 32.497", fillcolor="#fbece1"] ;
703 -> 715 ;
716 [label="squared_error = 0.0\nsamples = 1\nvalue = 32.093", fillcolor="#fbede2"] ;
715 -> 716 ;
717 [label="squared_error = 0.0\nsamples = 1\nvalue = 32.902", fillcolor="#fbebe0"] ;
715 -> 717 ;
718 [label="SSS - anomaly <= -0.058\nsquared_error = 21.024\nsamples = 17\nvalue = 33.6", fillcolor="#fbebdf"] ;
702 -> 718 ;
719 [label="SSH - anomaly <= -0.031\nsquared_error = 40.226\nsamples = 5\nvalue = 31.036", fillcolor="#fbeee4"] ;
718 -> 719 ;
720 [label="SSS - anomaly <= -0.112\nsquared_error = 18.431\nsamples = 2\nvalue = 24.186", fillcolor="#fdf7f3"] ;
719 -> 720 ;
721 [label="squared_error = 0.0\nsamples = 1\nvalue = 28.479", fillcolor="#fcf1ea"] ;
720 -> 721 ;
722 [label="squared_error = 0.0\nsamples = 1\nvalue = 19.893", fillcolor="#fffdfc"] ;
720 -> 722 ;
723 [label="SST - anomaly <= -0.281\nsquared_error = 2.616\nsamples = 3\nvalue = 35.603", fillcolor="#fae8db"] ;
719 -> 723 ;
724 [label="SSH - anomaly <= -0.011\nsquared_error = 0.146\nsamples = 2\nvalue = 34.481", fillcolor="#fbe9dd"] ;
723 -> 724 ;
725 [label="squared_error = 0.0\nsamples = 1\nvalue = 34.098", fillcolor="#fbeade"] ;
724 -> 725 ;
726 [label="squared_error = 0.0\nsamples = 1\nvalue = 34.863", fillcolor="#fae9dc"] ;
724 -> 726 ;
727 [label="squared_error = 0.0\nsamples = 1\nvalue = 37.848", fillcolor="#fae5d6"] ;
723 -> 727 ;
728 [label="SSS - anomaly <= -0.006\nsquared_error = 9.143\nsamples = 12\nvalue = 34.669", fillcolor="#fae9dd"] ;
718 -> 728 ;
729 [label="squared_error = 0.0\nsamples = 1\nvalue = 43.044", fillcolor="#f8decb"] ;
728 -> 729 ;
730 [label="SSS - anomaly <= 0.061\nsquared_error = 3.018\nsamples = 11\nvalue = 33.907", fillcolor="#fbeade"] ;
728 -> 730 ;
731 [label="SST - anomaly <= -0.271\nsquared_error = 1.142\nsamples = 6\nvalue = 35.095", fillcolor="#fae9dc"] ;
730 -> 731 ;
732 [label="month of year <= 344.0\nsquared_error = 0.386\nsamples = 3\nvalue = 34.276", fillcolor="#fbeadd"] ;
731 -> 732 ;
733 [label="month of year <= 307.5\nsquared_error = 0.043\nsamples = 2\nvalue = 34.698", fillcolor="#fae9dd"] ;
732 -> 733 ;
734 [label="squared_error = 0.0\nsamples = 1\nvalue = 34.492", fillcolor="#fbe9dd"] ;
733 -> 734 ;
735 [label="squared_error = 0.0\nsamples = 1\nvalue = 34.905", fillcolor="#fae9dc"] ;
733 -> 735 ;
736 [label="squared_error = 0.0\nsamples = 1\nvalue = 33.43", fillcolor="#fbebdf"] ;
732 -> 736 ;
737 [label="SSH - anomaly <= -0.037\nsquared_error = 0.553\nsamples = 3\nvalue = 35.915", fillcolor="#fae7da"] ;
731 -> 737 ;
738 [label="squared_error = 0.0\nsamples = 1\nvalue = 34.979", fillcolor="#fae9dc"] ;
737 -> 738 ;
739 [label="SST - anomaly <= -0.182\nsquared_error = 0.173\nsamples = 2\nvalue = 36.383", fillcolor="#fae7d9"] ;
737 -> 739 ;
740 [label="squared_error = 0.0\nsamples = 1\nvalue = 35.968", fillcolor="#fae7da"] ;
739 -> 740 ;
741 [label="squared_error = 0.0\nsamples = 1\nvalue = 36.799", fillcolor="#fae6d8"] ;
739 -> 741 ;
742 [label="SST - climatology <= 28.841\nsquared_error = 1.542\nsamples = 5\nvalue = 32.481", fillcolor="#fbece1"] ;
730 -> 742 ;
743 [label="month of year <= 338.0\nsquared_error = 0.32\nsamples = 4\nvalue = 31.914", fillcolor="#fbede2"] ;
742 -> 743 ;
744 [label="SSH - climatology <= 0.78\nsquared_error = 0.003\nsamples = 2\nvalue = 31.351", fillcolor="#fbeee4"] ;
743 -> 744 ;
745 [label="squared_error = 0.0\nsamples = 1\nvalue = 31.293", fillcolor="#fbeee4"] ;
744 -> 745 ;
746 [label="squared_error = 0.0\nsamples = 1\nvalue = 31.409", fillcolor="#fbede3"] ;
744 -> 746 ;
747 [label="SST - anomaly <= -0.244\nsquared_error = 0.002\nsamples = 2\nvalue = 32.477", fillcolor="#fbece1"] ;
743 -> 747 ;
748 [label="squared_error = 0.0\nsamples = 1\nvalue = 32.522", fillcolor="#fbece1"] ;
747 -> 748 ;
749 [label="squared_error = 0.0\nsamples = 1\nvalue = 32.433", fillcolor="#fbece1"] ;
747 -> 749 ;
750 [label="squared_error = 0.0\nsamples = 1\nvalue = 34.749", fillcolor="#fae9dc"] ;
742 -> 750 ;
751 [label="SSH - anomaly <= -0.012\nsquared_error = 14.103\nsamples = 30\nvalue = 28.35", fillcolor="#fcf2ea"] ;
701 -> 751 ;
752 [label="SSS - anomaly <= 0.082\nsquared_error = 5.534\nsamples = 19\nvalue = 27.042", fillcolor="#fdf3ed"] ;
751 -> 752 ;
753 [label="SST - anomaly <= -0.04\nsquared_error = 1.37\nsamples = 12\nvalue = 26.092", fillcolor="#fdf5ef"] ;
752 -> 753 ;
754 [label="SSS - anomaly <= -0.209\nsquared_error = 1.59\nsamples = 2\nvalue = 24.282", fillcolor="#fdf7f2"] ;
753 -> 754 ;
755 [label="squared_error = 0.0\nsamples = 1\nvalue = 25.543", fillcolor="#fdf5f0"] ;
754 -> 755 ;
756 [label="squared_error = 0.0\nsamples = 1\nvalue = 23.021", fillcolor="#fef9f5"] ;
754 -> 756 ;
757 [label="SSS - anomaly <= -0.277\nsquared_error = 0.539\nsamples = 10\nvalue = 26.454", fillcolor="#fdf4ee"] ;
753 -> 757 ;
758 [label="SSH - anomaly <= -0.014\nsquared_error = 0.301\nsamples = 2\nvalue = 25.696", fillcolor="#fdf5ef"] ;
757 -> 758 ;
759 [label="squared_error = 0.0\nsamples = 1\nvalue = 25.147", fillcolor="#fdf6f1"] ;
758 -> 759 ;
760 [label="squared_error = 0.0\nsamples = 1\nvalue = 26.245", fillcolor="#fdf4ee"] ;
758 -> 760 ;
761 [label="month of year <= 81.0\nsquared_error = 0.419\nsamples = 8\nvalue = 26.644", fillcolor="#fdf4ed"] ;
757 -> 761 ;
762 [label="month of year <= 44.5\nsquared_error = 0.146\nsamples = 2\nvalue = 27.389", fillcolor="#fcf3ec"] ;
761 -> 762 ;
763 [label="squared_error = 0.0\nsamples = 1\nvalue = 27.007", fillcolor="#fdf3ed"] ;
762 -> 763 ;
764 [label="squared_error = 0.0\nsamples = 1\nvalue = 27.77", fillcolor="#fcf2eb"] ;
762 -> 764 ;
765 [label="SST - anomaly <= 0.371\nsquared_error = 0.263\nsamples = 6\nvalue = 26.396", fillcolor="#fdf4ee"] ;
761 -> 765 ;
766 [label="SSH - anomaly <= -0.09\nsquared_error = 0.097\nsamples = 5\nvalue = 26.204", fillcolor="#fdf4ee"] ;
765 -> 766 ;
767 [label="squared_error = 0.0\nsamples = 1\nvalue = 25.624", fillcolor="#fdf5f0"] ;
766 -> 767 ;
768 [label="SSH - anomaly <= -0.071\nsquared_error = 0.015\nsamples = 4\nvalue = 26.35", fillcolor="#fdf4ee"] ;
766 -> 768 ;
769 [label="squared_error = 0.0\nsamples = 1\nvalue = 26.161", fillcolor="#fdf4ee"] ;
768 -> 769 ;
770 [label="SSH - anomaly <= -0.056\nsquared_error = 0.005\nsamples = 3\nvalue = 26.412", fillcolor="#fdf4ee"] ;
768 -> 770 ;
771 [label="squared_error = 0.0\nsamples = 1\nvalue = 26.509", fillcolor="#fdf4ee"] ;
770 -> 771 ;
772 [label="squared_error = 0.0\nsamples = 2\nvalue = 26.364", fillcolor="#fdf4ee"] ;
770 -> 772 ;
773 [label="squared_error = 0.0\nsamples = 1\nvalue = 27.352", fillcolor="#fdf3ec"] ;
765 -> 773 ;
774 [label="SSS - anomaly <= 0.135\nsquared_error = 8.474\nsamples = 7\nvalue = 28.671", fillcolor="#fcf1e9"] ;
752 -> 774 ;
775 [label="SSS - climatology <= 34.879\nsquared_error = 0.521\nsamples = 2\nvalue = 32.752", fillcolor="#fbece1"] ;
774 -> 775 ;
776 [label="squared_error = 0.0\nsamples = 1\nvalue = 33.473", fillcolor="#fbebdf"] ;
775 -> 776 ;
777 [label="squared_error = 0.0\nsamples = 1\nvalue = 32.03", fillcolor="#fbede2"] ;
775 -> 777 ;
778 [label="SSS - anomaly <= 0.193\nsquared_error = 2.331\nsamples = 5\nvalue = 27.039", fillcolor="#fdf3ed"] ;
774 -> 778 ;
779 [label="month of year <= 164.5\nsquared_error = 0.411\nsamples = 3\nvalue = 25.918", fillcolor="#fdf5ef"] ;
778 -> 779 ;
780 [label="squared_error = 0.0\nsamples = 1\nvalue = 26.743", fillcolor="#fdf4ed"] ;
779 -> 780 ;
781 [label="SSS - climatology <= 34.879\nsquared_error = 0.106\nsamples = 2\nvalue = 25.506", fillcolor="#fdf5f0"] ;
779 -> 781 ;
782 [label="squared_error = 0.0\nsamples = 1\nvalue = 25.18", fillcolor="#fdf6f1"] ;
781 -> 782 ;
783 [label="squared_error = 0.0\nsamples = 1\nvalue = 25.832", fillcolor="#fdf5ef"] ;
781 -> 783 ;
784 [label="SSS - climatology <= 34.906\nsquared_error = 0.502\nsamples = 2\nvalue = 28.72", fillcolor="#fcf1e9"] ;
778 -> 784 ;
785 [label="squared_error = 0.0\nsamples = 1\nvalue = 29.428", fillcolor="#fcf0e8"] ;
784 -> 785 ;
786 [label="squared_error = 0.0\nsamples = 1\nvalue = 28.011", fillcolor="#fcf2eb"] ;
784 -> 786 ;
787 [label="SST - anomaly <= 0.5\nsquared_error = 20.842\nsamples = 11\nvalue = 30.61", fillcolor="#fcefe5"] ;
751 -> 787 ;
788 [label="SSS - anomaly <= -0.138\nsquared_error = 9.922\nsamples = 9\nvalue = 32.222", fillcolor="#fbece2"] ;
787 -> 788 ;
789 [label="month of year <= 75.0\nsquared_error = 1.216\nsamples = 3\nvalue = 36.377", fillcolor="#fae7d9"] ;
788 -> 789 ;
790 [label="squared_error = 0.0\nsamples = 1\nvalue = 37.89", fillcolor="#fae5d6"] ;
789 -> 790 ;
791 [label="SSH - climatology <= 0.784\nsquared_error = 0.108\nsamples = 2\nvalue = 35.621", fillcolor="#fae8db"] ;
789 -> 791 ;
792 [label="squared_error = 0.0\nsamples = 1\nvalue = 35.292", fillcolor="#fae8db"] ;
791 -> 792 ;
793 [label="squared_error = 0.0\nsamples = 1\nvalue = 35.949", fillcolor="#fae7da"] ;
791 -> 793 ;
794 [label="SSS - anomaly <= -0.061\nsquared_error = 1.326\nsamples = 6\nvalue = 30.144", fillcolor="#fcefe6"] ;
788 -> 794 ;
795 [label="SST - climatology <= 28.653\nsquared_error = 0.515\nsamples = 2\nvalue = 31.426", fillcolor="#fbede3"] ;
794 -> 795 ;
796 [label="squared_error = 0.0\nsamples = 1\nvalue = 30.708", fillcolor="#fceee5"] ;
795 -> 796 ;
797 [label="squared_error = 0.0\nsamples = 1\nvalue = 32.143", fillcolor="#fbece2"] ;
795 -> 797 ;
798 [label="SSS - anomaly <= 0.1\nsquared_error = 0.499\nsamples = 4\nvalue = 29.503", fillcolor="#fcf0e7"] ;
794 -> 798 ;
799 [label="SSS - anomaly <= -0.019\nsquared_error = 0.157\nsamples = 3\nvalue = 29.147", fillcolor="#fcf0e8"] ;
798 -> 799 ;
800 [label="squared_error = 0.0\nsamples = 1\nvalue = 28.587", fillcolor="#fcf1e9"] ;
799 -> 800 ;
801 [label="SSH - anomaly <= -0.006\nsquared_error = 0.0\nsamples = 2\nvalue = 29.427", fillcolor="#fcf0e8"] ;
799 -> 801 ;
802 [label="squared_error = 0.0\nsamples = 1\nvalue = 29.449", fillcolor="#fcf0e8"] ;
801 -> 802 ;
803 [label="squared_error = 0.0\nsamples = 1\nvalue = 29.405", fillcolor="#fcf0e8"] ;
801 -> 803 ;
804 [label="squared_error = 0.0\nsamples = 1\nvalue = 30.573", fillcolor="#fcefe5"] ;
798 -> 804 ;
805 [label="month of year <= 452.5\nsquared_error = 5.669\nsamples = 2\nvalue = 23.356", fillcolor="#fef8f4"] ;
787 -> 805 ;
806 [label="squared_error = 0.0\nsamples = 1\nvalue = 25.737", fillcolor="#fdf5ef"] ;
805 -> 806 ;
807 [label="squared_error = 0.0\nsamples = 1\nvalue = 20.975", fillcolor="#fefbf9"] ;
805 -> 807 ;
808 [label="SST - anomaly <= 0.158\nsquared_error = 59.043\nsamples = 12\nvalue = 37.377", fillcolor="#fae5d7"] ;
700 -> 808 ;
809 [label="SSH - anomaly <= -0.066\nsquared_error = 35.497\nsamples = 6\nvalue = 42.873", fillcolor="#f8decb"] ;
808 -> 809 ;
810 [label="squared_error = 0.0\nsamples = 1\nvalue = 31.775", fillcolor="#fbede3"] ;
809 -> 810 ;
811 [label="SSS - anomaly <= 0.155\nsquared_error = 13.039\nsamples = 5\nvalue = 45.092", fillcolor="#f8dbc7"] ;
809 -> 811 ;
812 [label="SSH - climatology <= 0.788\nsquared_error = 0.916\nsamples = 2\nvalue = 41.042", fillcolor="#f9e1cf"] ;
811 -> 812 ;
813 [label="squared_error = 0.0\nsamples = 1\nvalue = 40.085", fillcolor="#f9e2d1"] ;
812 -> 813 ;
814 [label="squared_error = 0.0\nsamples = 1\nvalue = 42.0", fillcolor="#f8dfcd"] ;
812 -> 814 ;
815 [label="month of year <= 488.5\nsquared_error = 2.895\nsamples = 3\nvalue = 47.793", fillcolor="#f7d8c1"] ;
811 -> 815 ;
816 [label="squared_error = 0.0\nsamples = 1\nvalue = 45.507", fillcolor="#f7dbc6"] ;
815 -> 816 ;
817 [label="SSH - anomaly <= -0.038\nsquared_error = 0.424\nsamples = 2\nvalue = 48.935", fillcolor="#f7d6bf"] ;
815 -> 817 ;
818 [label="squared_error = 0.0\nsamples = 1\nvalue = 49.586", fillcolor="#f6d5bd"] ;
817 -> 818 ;
819 [label="squared_error = 0.0\nsamples = 1\nvalue = 48.285", fillcolor="#f7d7c0"] ;
817 -> 819 ;
820 [label="SSS - anomaly <= 0.249\nsquared_error = 22.169\nsamples = 6\nvalue = 31.88", fillcolor="#fbede2"] ;
808 -> 820 ;
821 [label="SSH - anomaly <= -0.066\nsquared_error = 6.837\nsamples = 4\nvalue = 34.609", fillcolor="#fbe9dd"] ;
820 -> 821 ;
822 [label="squared_error = 0.0\nsamples = 1\nvalue = 30.304", fillcolor="#fcefe6"] ;
821 -> 822 ;
823 [label="SSH - anomaly <= -0.049\nsquared_error = 0.877\nsamples = 3\nvalue = 36.045", fillcolor="#fae7da"] ;
821 -> 823 ;
824 [label="squared_error = 0.0\nsamples = 1\nvalue = 34.725", fillcolor="#fae9dc"] ;
823 -> 824 ;
825 [label="month of year <= 614.0\nsquared_error = 0.008\nsamples = 2\nvalue = 36.705", fillcolor="#fae6d8"] ;
823 -> 825 ;
826 [label="squared_error = 0.0\nsamples = 1\nvalue = 36.795", fillcolor="#fae6d8"] ;
825 -> 826 ;
827 [label="squared_error = 0.0\nsamples = 1\nvalue = 36.614", fillcolor="#fae7d9"] ;
825 -> 827 ;
828 [label="SSS - anomaly <= 0.31\nsquared_error = 8.146\nsamples = 2\nvalue = 26.422", fillcolor="#fdf4ee"] ;
820 -> 828 ;
829 [label="squared_error = 0.0\nsamples = 1\nvalue = 29.276", fillcolor="#fcf0e8"] ;
828 -> 829 ;
830 [label="squared_error = 0.0\nsamples = 1\nvalue = 23.568", fillcolor="#fef8f4"] ;
828 -> 830 ;
831 [label="SSH - anomaly <= -0.039\nsquared_error = 20.587\nsamples = 23\nvalue = 26.693", fillcolor="#fdf4ed"] ;
699 -> 831 ;
832 [label="SSH - anomaly <= -0.096\nsquared_error = 22.176\nsamples = 11\nvalue = 29.082", fillcolor="#fcf1e8"] ;
831 -> 832 ;
833 [label="month of year <= 258.0\nsquared_error = 6.109\nsamples = 3\nvalue = 24.876", fillcolor="#fdf6f1"] ;
832 -> 833 ;
834 [label="squared_error = 0.0\nsamples = 1\nvalue = 21.503", fillcolor="#fefbf8"] ;
833 -> 834 ;
835 [label="SSS - anomaly <= 0.367\nsquared_error = 0.631\nsamples = 2\nvalue = 26.562", fillcolor="#fdf4ee"] ;
833 -> 835 ;
836 [label="squared_error = 0.0\nsamples = 1\nvalue = 27.357", fillcolor="#fdf3ec"] ;
835 -> 836 ;
837 [label="squared_error = 0.0\nsamples = 1\nvalue = 25.768", fillcolor="#fdf5ef"] ;
835 -> 837 ;
838 [label="SSH - anomaly <= -0.085\nsquared_error = 19.077\nsamples = 8\nvalue = 30.66", fillcolor="#fceee5"] ;
832 -> 838 ;
839 [label="squared_error = 0.0\nsamples = 1\nvalue = 40.441", fillcolor="#f9e1d0"] ;
838 -> 839 ;
840 [label="SST - anomaly <= -0.558\nsquared_error = 6.183\nsamples = 7\nvalue = 29.262", fillcolor="#fcf0e8"] ;
838 -> 840 ;
841 [label="SST - anomaly <= -1.057\nsquared_error = 2.731\nsamples = 3\nvalue = 31.538", fillcolor="#fbede3"] ;
840 -> 841 ;
842 [label="squared_error = 0.0\nsamples = 1\nvalue = 33.787", fillcolor="#fbeade"] ;
841 -> 842 ;
843 [label="SST - anomaly <= -0.677\nsquared_error = 0.305\nsamples = 2\nvalue = 30.414", fillcolor="#fcefe6"] ;
841 -> 843 ;
844 [label="squared_error = 0.0\nsamples = 1\nvalue = 30.966", fillcolor="#fceee4"] ;
843 -> 844 ;
845 [label="squared_error = 0.0\nsamples = 1\nvalue = 29.862", fillcolor="#fcf0e7"] ;
843 -> 845 ;
846 [label="SSS - anomaly <= 0.191\nsquared_error = 1.974\nsamples = 4\nvalue = 27.556", fillcolor="#fcf3ec"] ;
840 -> 846 ;
847 [label="SSH - anomaly <= -0.058\nsquared_error = 0.453\nsamples = 3\nvalue = 28.294", fillcolor="#fcf2ea"] ;
846 -> 847 ;
848 [label="SSS - anomaly <= 0.127\nsquared_error = 0.028\nsamples = 2\nvalue = 27.827", fillcolor="#fcf2eb"] ;
847 -> 848 ;
849 [label="squared_error = 0.0\nsamples = 1\nvalue = 27.994", fillcolor="#fcf2eb"] ;
848 -> 849 ;
850 [label="squared_error = 0.0\nsamples = 1\nvalue = 27.661", fillcolor="#fcf2eb"] ;
848 -> 850 ;
851 [label="squared_error = 0.0\nsamples = 1\nvalue = 29.226", fillcolor="#fcf0e8"] ;
847 -> 851 ;
852 [label="squared_error = 0.0\nsamples = 1\nvalue = 25.341", fillcolor="#fdf6f0"] ;
846 -> 852 ;
853 [label="month of year <= 582.0\nsquared_error = 9.102\nsamples = 12\nvalue = 24.503", fillcolor="#fdf7f2"] ;
831 -> 853 ;
854 [label="SSS - anomaly <= 0.193\nsquared_error = 6.686\nsamples = 11\nvalue = 25.023", fillcolor="#fdf6f1"] ;
853 -> 854 ;
855 [label="SST - anomaly <= -0.558\nsquared_error = 5.514\nsamples = 10\nvalue = 24.614", fillcolor="#fdf7f2"] ;
854 -> 855 ;
856 [label="squared_error = 0.0\nsamples = 1\nvalue = 27.548", fillcolor="#fcf3ec"] ;
855 -> 856 ;
857 [label="SSS - anomaly <= -0.172\nsquared_error = 5.063\nsamples = 9\nvalue = 24.288", fillcolor="#fdf7f2"] ;
855 -> 857 ;
858 [label="month of year <= 276.0\nsquared_error = 1.73\nsamples = 3\nvalue = 26.061", fillcolor="#fdf5ef"] ;
857 -> 858 ;
859 [label="SST - anomaly <= 0.172\nsquared_error = 0.589\nsamples = 2\nvalue = 25.243", fillcolor="#fdf6f0"] ;
858 -> 859 ;
860 [label="squared_error = 0.0\nsamples = 1\nvalue = 24.476", fillcolor="#fdf7f2"] ;
859 -> 860 ;
861 [label="squared_error = 0.0\nsamples = 1\nvalue = 26.011", fillcolor="#fdf5ef"] ;
859 -> 861 ;
862 [label="squared_error = 0.0\nsamples = 1\nvalue = 27.697", fillcolor="#fcf2eb"] ;
858 -> 862 ;
863 [label="SSS - anomaly <= -0.042\nsquared_error = 4.37\nsamples = 6\nvalue = 23.401", fillcolor="#fef8f4"] ;
857 -> 863 ;
864 [label="month of year <= 264.0\nsquared_error = 0.015\nsamples = 2\nvalue = 21.625", fillcolor="#fefbf8"] ;
863 -> 864 ;
865 [label="squared_error = 0.0\nsamples = 1\nvalue = 21.504", fillcolor="#fefbf8"] ;
864 -> 865 ;
866 [label="squared_error = 0.0\nsamples = 1\nvalue = 21.745", fillcolor="#fefaf8"] ;
864 -> 866 ;
867 [label="SST - anomaly <= -0.038\nsquared_error = 4.182\nsamples = 4\nvalue = 24.289", fillcolor="#fdf7f2"] ;
863 -> 867 ;
868 [label="SST - anomaly <= -0.246\nsquared_error = 0.122\nsamples = 2\nvalue = 22.455", fillcolor="#fef9f6"] ;
867 -> 868 ;
869 [label="squared_error = 0.0\nsamples = 1\nvalue = 22.105", fillcolor="#fefaf7"] ;
868 -> 869 ;
870 [label="squared_error = 0.0\nsamples = 1\nvalue = 22.804", fillcolor="#fef9f6"] ;
868 -> 870 ;
871 [label="SSH - anomaly <= -0.015\nsquared_error = 1.514\nsamples = 2\nvalue = 26.123", fillcolor="#fdf5ef"] ;
867 -> 871 ;
872 [label="squared_error = 0.0\nsamples = 1\nvalue = 27.353", fillcolor="#fdf3ec"] ;
871 -> 872 ;
873 [label="squared_error = 0.0\nsamples = 1\nvalue = 24.892", fillcolor="#fdf6f1"] ;
871 -> 873 ;
874 [label="squared_error = 0.0\nsamples = 1\nvalue = 29.113", fillcolor="#fcf1e8"] ;
854 -> 874 ;
875 [label="squared_error = 0.0\nsamples = 1\nvalue = 18.784", fillcolor="#fffefe"] ;
853 -> 875 ;
876 [label="SST - anomaly <= 0.016\nsquared_error = 53.189\nsamples = 68\nvalue = 35.188", fillcolor="#fae8dc"] ;
698 -> 876 ;
877 [label="SSS - anomaly <= 0.092\nsquared_error = 57.139\nsamples = 28\nvalue = 39.326", fillcolor="#f9e3d3"] ;
876 -> 877 ;
878 [label="SSS - anomaly <= -0.107\nsquared_error = 24.986\nsamples = 23\nvalue = 36.821", fillcolor="#fae6d8"] ;
877 -> 878 ;
879 [label="SSS - climatology <= 34.879\nsquared_error = 8.798\nsamples = 6\nvalue = 31.46", fillcolor="#fbede3"] ;
878 -> 879 ;
880 [label="month of year <= 351.0\nsquared_error = 0.006\nsamples = 2\nvalue = 35.312", fillcolor="#fae8db"] ;
879 -> 880 ;
881 [label="squared_error = 0.0\nsamples = 1\nvalue = 35.236", fillcolor="#fae8db"] ;
880 -> 881 ;
882 [label="squared_error = 0.0\nsamples = 1\nvalue = 35.387", fillcolor="#fae8db"] ;
880 -> 882 ;
883 [label="SST - anomaly <= -0.231\nsquared_error = 2.066\nsamples = 4\nvalue = 29.534", fillcolor="#fcf0e7"] ;
879 -> 883 ;
884 [label="SSH - anomaly <= 0.03\nsquared_error = 0.107\nsamples = 2\nvalue = 28.161", fillcolor="#fcf2ea"] ;
883 -> 884 ;
885 [label="squared_error = 0.0\nsamples = 1\nvalue = 27.834", fillcolor="#fcf2eb"] ;
884 -> 885 ;
886 [label="squared_error = 0.0\nsamples = 1\nvalue = 28.489", fillcolor="#fcf1ea"] ;
884 -> 886 ;
887 [label="SSS - anomaly <= -0.358\nsquared_error = 0.257\nsamples = 2\nvalue = 30.906", fillcolor="#fceee5"] ;
883 -> 887 ;
888 [label="squared_error = 0.0\nsamples = 1\nvalue = 30.399", fillcolor="#fcefe6"] ;
887 -> 888 ;
